{"layer_dims": [784, 30, 30, 10], "W1": [[-0.002550501145931834, -0.017312075496705406, -0.011158929557777603, -0.019188326563390028, -0.02004262167574566, -0.0147827751949959, 0.006198380540541299, -0.013881859356541858, -0.0004792056570393689, 0.00928324878059858, -0.003987973470199078, 0.0006024494130024164, 0.007805955875150303, -0.009382618348448167, -0.007792582769131532, -0.014699237909910557, 0.009321128804204656, 0.009808663287333935, 0.008910734137739143, -0.03336956296222275, 0.03225911730690546, -0.005165850162250743, 0.007944535062741108, 0.018684828829396604, -0.0030779016440570725, -0.009875908375214881, 0.00880508711037922, -0.010322579598849505, -0.0013164151720895098, 0.026341155905094612, 0.01090427523462723, -0.03247131814983951, -0.00423091969799249, 0.012382429376924827, 0.008085528286001757, -0.008078212340912942, -0.001561458248481866, -0.00724298648633693, 0.013095823957200823, 0.0064364763525804735, 0.014491027420122763, -0.030418822215643144, -0.0035061369241458787, -0.0505820769173931, -0.021607994075010982, 0.017105188523124797, -0.003942148288983062, -0.0033164938047537977, 0.02769604680730417, 0.01570945264148207, 0.003895360735924938, -0.013226818789334285, 0.010637942746091391, -0.012757442230565411, -0.0023726302676680736, -0.001962328979234747, 0.014430710687673104, 0.008006081764698835, -0.0075242370180818976, 0.008475975882303729, -0.029734059816765784, -0.03438824076377726, 0.016197842051432137, 0.021779007706061084, 0.018155593347533115, 0.05495752324760896, 0.03271584396080739, -0.012224626800588806, 0.021100318225460456, -0.031099189841632152, 0.05556392851213209, -0.11055579853177504, -0.13628139886526366, -0.09308442161620835, -0.08502897789521831, -0.0862946486839399, -0.026762449771539475, -0.00667486798488389, 0.014061152841203546, -0.01964612646608053, -0.0027362312158952045, -0.0019416399650601156, 0.0011454110827232697, 0.005101727542334961, -0.0003327250814103589, -0.011549418422088306, 0.009997298966168515, -0.023464342697460776, 0.018866618039244797, -0.009985668078867343, 0.01944765427578837, 0.032876897033992894, 0.012100562164314254, 0.04922378683360907, 0.011237578899081169, 0.1982921988243194, 0.04436930854632446, -0.09975712400060299, -0.040082119179705764, -0.0036755728345532574, -0.02281363309112311, -0.08762273213590484, -0.07555310047933679, -0.12082823300247322, -0.20333616424601164, -0.03879771787474578, -0.012054286533649892, -0.00812095697355541, 0.01569889387919678, -0.005761153904805016, 0.002583241675192795, -0.02561112712449983, -0.008362355330556626, 0.01668529348698257, 0.0037844776331705994, -0.01298617797430764, -0.016940232655124766, -0.04152512334764195, -0.006076189627870261, -0.02537987429753958, -0.07357656029154507, -0.009530404568230774, 0.017402842051347647, 0.034754665932076885, 0.0928894684105639, 0.002398651154816836, -0.029090290709120482, -0.0438733648731736, -0.05612606412974648, 0.07258389930310916, -0.0011518048055218727, -0.07582877540819837, -0.06249338852195431, -0.09444272951777215, -0.03596240101392592, 0.047771829070424474, 0.004135148142255765, 0.008415734394141412, 0.020533895189290677, 0.012241893474847552, 0.002883064426678669, 0.004761322211817139, -0.02737367295861354, -0.003882205778970134, -0.010155241870949246, -0.07469009690579058, -0.04391270027647831, -0.04596077283296637, -0.08834582350415372, -0.07812178849990307, -0.0765337243693186, -0.03368504821368294, -0.09954352197637961, -0.012520443372872217, 0.0785212593827287, -0.12489883005341625, -0.11463046512857902, -0.10758423726465192, -0.013441920285985353, -0.04044284787948621, -0.07911026770681465, -0.07142808057740845, -0.0455731622374868, 0.03473983786208858, -0.012285069979109262, 0.00029204909136663757, -0.0133606024864124, 0.01221769978816077, -0.020971716552994887, 0.029434210731070685, -0.03580536754870813, 0.00017069613606347962, 0.002470039242663748, -0.08706680236360721, -0.04645632975614168, -0.03346979423127237, -0.1477671224334997, -0.1789290104363661, -0.16877823300894076, -0.09310645627165617, -0.10059052666069435, -0.13022824668454008, -0.007177136059623077, -0.026470591502849375, 0.1310338298688819, -0.13145538485800273, -0.11152672178687306, 0.044885320575540025, -0.04217676313813166, 0.03408392787806009, -0.02446726937190794, -0.05350139307222336, -0.003908922562959766, -0.036696896524129836, -0.0010642778547470281, 0.0183426294485026, 0.01920906613435655, -0.009071770419884008, 0.0001476958558795576, -0.0018788628194173996, -0.01945350094954655, 0.006858138478910131, 0.016290872231769848, -0.09934504118933529, -0.11813613901478975, -0.0690524401975048, -0.08479163999539029, 0.09257537366462791, -0.015555435172428989, 0.06160605861096669, -0.0736370592135884, -0.07271737137252582, -0.1148149061220655, -0.17045649800078633, -0.08852947123493626, -0.08239111111183364, -0.09892867874503565, 0.1474249707213509, 0.06394940317325788, -0.13587250305473314, -0.06391924898913397, -0.03205411975955587, -0.020069031764171998, -0.005678031283009572, -0.003591549994979341, 0.0027216908490068892, 0.02582070326814472, -0.03826394854424462, -0.06452929978118299, -0.08952117226062682, -0.09902868560781328, -0.1882834295081394, -0.17632608978871925, -0.10931335407887639, 0.015919151744418342, -0.036612682819591236, -0.02267340005033976, -0.03933531786541053, -0.10285594859442151, -0.05428641625976358, 0.0016906219991513417, 0.07817716232177202, -0.028981530211702168, 0.025139737392658987, -0.05460928324445585, 0.009345769824525032, -0.09559176998460552, -0.11732018041344427, -0.0042013095492858836, -0.020615115652333336, -0.0518616181782029, -0.01866142636957577, -0.005192619960162207, -0.03378605275693689, -0.009590416188271354, -0.03975562012439409, -0.05954834749964732, -0.06587736541311916, -0.04444079028378705, -0.15091855578741745, -0.2408421515955851, 0.0618432251145003, 0.1101538993418979, -0.12107980408024167, -0.02922014062757245, 0.015681660968174336, -0.1439216063823902, 0.06545149735464065, 0.1818967393749126, 0.14490982805867844, 0.14230252101177895, -0.01244473948923303, -0.05607556480767159, -0.10992025719513901, -0.3351771070728502, -0.17707558291732386, 0.019467284897389293, -0.0254017096407297, -0.02579443098270305, -0.036220063694474065, -0.025991658432067626, -9.674437143644282e-05, 0.028672401077923747, 0.03618922601932383, 0.030168802894262218, 0.10073576300471782, 0.0007734607881020601, -0.10252147100117567, -0.1334576197420039, 1.342625580305428e-07, -0.013276928902415774, -0.04660197390375022, -0.14263134030165298, -0.10584006667340895, -0.2337647617081559, -0.20882514028594043, -0.07002132583781848, 0.1305656563223316, 0.13170965508552493, -0.017491921047460175, -0.12370307829050393, -0.06445246145652654, -0.22377883998589998, -0.1565140624035463, -0.03161296482225247, -0.02384731275927416, -0.011492692294059935, -0.014747465135103421, 0.021480774925113123, 0.011338181775484424, -0.019844328743365038, 0.010662427192292373, 0.009643866802592936, 0.11728560204837415, 0.09977128363763987, -0.00820252045972201, -0.09687150892192165, 0.015890689864813907, -0.07048740561248723, -0.10994227009579853, -0.030522354049932105, -0.030606070469308962, -0.2806141397294911, -0.48665118401396695, -0.21002881868488854, -0.09735126138340337, -0.004273329023379161, 0.13643112557634657, -0.08106478891572459, 0.026229836808153148, -0.07242505411884663, -0.08097577600859727, -0.07978405949420031, -0.02956147603175041, -0.034523548859141225, 0.009048411622797459, -0.008515339927292153, 0.030005676296873812, 0.017381948306088833, 0.03367069764591172, 0.061026977996496055, 0.03281708883259991, 0.1019709616550933, -0.060801241610886084, -0.011282486863031578, 0.058158347293089725, -0.18560973587107205, -0.03601292450899601, 0.00012763898876827116, -0.0343834640350672, -0.2318551633014207, -0.414719999505796, -0.2157698018481309, -0.06541138164396626, -0.12266900945873016, 0.10728396181381337, -0.0025271573442736447, 0.07901306154221585, 0.045815368348261665, 0.07228718594874561, 0.04432627675226747, 0.02212716766307461, -0.032172569927322855, 0.003007497809903656, -0.012401582534079806, -0.005378258581928233, 0.01444882124256305, -0.016017767068971497, 0.12077600238138472, 0.09251357168614087, 0.10062483938283288, 0.11144886918346883, 0.08417051149176177, -0.012788636523185605, -0.0014351787482861896, -0.13770317241470292, 0.06777018858863942, -0.0011834351575785171, -0.20275702025159503, -0.2486701064112644, -0.22291214052327457, -0.08191045732513771, -0.02397185624794159, -0.05698734763014226, -0.08683305358918332, 0.01598738693927092, 0.06578527667031336, 0.1828977667267124, 0.047490365221151, 0.027121992735484324, 0.0011764974026733798, 0.026356042304589905, 0.021293282832533355, -0.00108256593376478, -0.02587126281937721, 0.008901621319096019, 0.18108449284190611, 0.1584928604914785, 0.23822132948719724, 0.1834832272684343, 0.14278741685057175, 0.20249303279171343, -0.06782442080410506, -0.08431967157361565, -0.05443244118795265, -0.14355747183429324, -0.1829311394865596, -0.16811294657911702, -0.06825023029783979, -0.09300048937719478, -0.10855098892252942, -0.012442796077481387, -0.005763781940311087, -0.037006361743545275, 0.012258502883345485, 0.07318679961015298, 0.12466993772250554, 0.07134564811396174, 0.03151559197573328, 0.010702983423526966, -0.011265723130303875, -0.010770884392380076, -0.005250059841477377, 0.07539341150070443, 0.03937344631295882, 0.1332334456900497, 0.15626463248028574, 0.20597769920135192, 0.2616430788928773, 0.26322626338315563, 0.1805661176776118, 0.07484646452375944, 0.004632854444218845, -0.07809532389140462, -0.03737379604170725, -0.13466883526160936, 0.004161797115680885, -0.028937289755316613, -0.19837802105618582, -0.025199212144711648, -0.101628062375591, -0.1433887987349794, -0.07161864397748378, 0.03537279774153735, 0.09570732987505662, 0.0446653622714905, 0.03808545902027872, -0.004470716441145304, 0.001900435511084439, -0.017519510034909876, -0.013712443958826441, 0.0029404573670866485, -0.10921888259435346, 0.09440674334511143, 0.15524750225701656, -0.007654652428341702, 0.17773480370789932, 0.28301026204263746, 0.2567473743759955, 0.23373775674068256, 0.09619509902715731, 0.036813925646874635, -0.05007827440300781, 0.010846996309685051, 0.12133815806732705, 0.0700111937145443, 0.012687695595664718, -0.0040616112963701234, 0.0018435856911622364, 0.11916265763677984, 0.04759974045096097, -0.051778632496637354, -0.01610437506810196, 0.056848699167069, -0.010105590543347231, 0.008536886044859813, 0.010909296619831713, 0.016520809618947745, -0.0008699881291512638, -0.0375910563093327, -0.1312162893533726, 0.04987607534940967, 0.07794760554427832, 0.08415057109819199, 0.1523513831513833, 0.21926975602711538, 0.3509596671071229, 0.18074712175026786, 0.12727881020489903, 0.08382571774991653, 0.09331198286152607, 0.20412324745956875, 0.1525905784501874, 0.09589040931457249, 0.03840946180243825, 0.008712786632024261, -0.006724969132171123, 0.08811469681345342, 0.1465639143879711, 0.008944048564733185, -0.05768980430202879, 0.08655184009402749, -0.008480994629826434, 0.007143657590788841, -0.000265888258442556, -0.013089695394938023, 0.007946873083769528, -0.05468552860561176, 0.020907109307828624, -0.017733524807481738, 0.03272493149203178, 0.2457764811223783, 0.20704084661353922, 0.18754351382266737, 0.16325932961367692, 0.07081848379894669, 0.20606407431532808, 0.10678252253899886, 0.11599959668014602, 0.08118844542846991, 0.07684156942734711, -0.07561399270523289, 0.034047641892902804, 0.08457148442354245, 0.108337306467699, 0.09157065975034853, 0.057011877777071646, 0.0015355491172416857, -0.016398019253237014, 0.07060843790304998, 0.026801569377383885, 0.005067113379733122, 0.015680712226243242, 0.014388761555891758, 0.0077169483859442735, 0.08877132723519493, 0.10459587137870575, 0.048330175608124734, 0.03197528360900873, 0.1229823562809033, 0.09162761045329625, 0.17819284663315613, 0.14883028621327984, 0.27559416581385876, 0.10510242712835455, 0.08286712884903816, 0.10392796800035232, 0.17401827009521548, -0.013631245497852587, 0.002657521636138969, 0.09538490685356854, 0.06132250268273964, 0.06510262637042544, 0.05120164972907895, 0.03648511001092605, 0.1142906987802481, 0.05432458635501371, 0.046240492680819235, 0.038545998474526416, 0.026462763171370998, -0.025766973289790916, 0.012180073959682253, 0.008410515899810764, 0.1442390707510615, 0.14617596094468477, 0.08368207896603563, 0.047715196942335135, 0.08325231991154769, 0.002986446375768844, 0.06382725080760124, 0.09223221983598465, 0.171947409215976, 0.13639854462435538, -0.025543330985306027, -0.09410020219683189, 0.17159318200679194, 0.14740053271698272, 0.05966274213490403, 0.10155403034215349, 0.09136639157179252, 0.0558336555145363, 0.12225657094979318, 0.06776103088709123, 0.19328198264123203, 0.07827556513147502, 0.048079571196002466, 0.03888843455291391, 0.005956108864192913, 0.03101396543189969, -0.004984566201352652, 0.072953682914849, 0.06076580969235781, 0.138909068832937, 0.12544230067071538, -0.020007702409701907, 0.04379699573369424, -0.05274111021324929, 0.08251373540595384, 0.032949559104288303, 0.08499989866636333, -0.029378619025260615, -0.0768354107900302, 0.018326180813483427, 0.001996323185282133, 0.03663521039114361, 0.05002580036292502, 0.011993055100223405, 0.2009795828540993, 0.14336258392147455, 0.09233888125309404, 0.20076461116799899, 0.25241441076254856, 0.09999145053200376, 0.010615358637091244, 0.01762091260672132, 0.02019528554685827, -0.0038532761705867427, -0.013561497986266477, 0.04071876696225719, 0.05779795649592745, 0.024311150094088192, 0.04079828272716239, -0.027817366492997313, 0.03803822454120733, 0.03691805808933249, -0.03283064417668849, 0.15207163414592048, 0.18252994108806647, 0.04579524812741121, -0.054528726740769216, -0.08543426922327634, -0.04930931235267897, 0.060656585860567325, -0.060142927568021684, 0.04146650756987385, 0.14646260246312345, 0.17165641310507584, 0.22536283518410655, 0.17269018086311386, 0.15876886364729462, 0.05681928663580172, 0.03217583042165425, -0.010422598413603861, 0.01760032460348618, -0.0018451270215826242, -0.0010207958871487808, -0.009896370955742372, -0.00041006676811376644, -0.03190828615763002, -0.02265251899248709, -0.06829540429536599, 0.010594293660540976, 0.08669559387545903, -0.0009214742699597603, -0.03027804926921045, 0.0730331084730981, 0.05844432038426636, -0.02309410127995683, 0.012595547162387729, 0.016111203234184558, -0.049646003558451945, -0.09081050610218762, -0.0505224326225995, 0.03436366090010524, 0.08479275138881909, 0.0786798417138431, 0.12954122974809504, 0.09085055453191092, 0.058487039607813124, 0.049805357118228144, -0.012030154949608532, -0.04155083459370861, 0.01672210905173095, -0.0068583172079572765, -0.004783915766358394, -0.01852289945426496, -0.03663727661051577, -0.07864091917761185, -0.09481654314255028, -0.09710063219827995, -0.11467499576637681, -0.07265245834390455, -0.1733413308608683, -0.058971557836197536, -0.008266524268899475, -0.07195141582209937, -0.11532698211695404, -0.047143277812846704, -0.09887668619154413, -0.18592673517235103, -0.1445411344833024, -0.07108622953150999, -0.03666504707010561, -0.03526293455082657, 0.03189666053152274, 0.006082108875474575, 0.02470292934252156, -0.005769738417621714, -0.0002790453372285894, -0.03206959563445466, -0.008419351017417864, -0.0022485397229701585, 0.0006075935684715097, 0.03843684821201131, 0.017974886625970993, -0.015355430404521999, 0.02748680701118973, -0.019748348239614688, -0.10991989352528833, -0.21228233130494395, -0.20408551307722034, -0.1486114416240787, -0.18063247059552534, -0.12197174975765522, -0.1123583488187105, -0.09335260240576827, -0.007833932108447197, -0.06426982091766276, -0.017450735639741193, -0.09703324897854837, -0.01266629506492155, 0.006458836207385816, -0.006117654323649802, -0.04014139275664178, -0.004277422107820541, 0.02327288126222714, -0.01183981909252148, 0.02601491370879625, 0.024304319220598232, 0.01464378446800832, 0.011379072177007923, 0.0240301490292472, 0.000328618385431652, 0.012515692554791394, 0.029219068277154297, -0.017862967966650486, -0.02450722515402576, -0.06383552580252302, -0.07232516011134309, -0.03619589145806693, 0.050821752556851986, 0.02744118068877016, -0.018286934411927712, -0.041546345038728755, -0.03775716464017651, -0.05057251045135057, -0.027272106161748848, -0.01437451086454686, 0.022598790913389802, -0.0014078354810859207, -0.01312407752665784, -0.0034990275694265906, 0.020786325593755896, -0.0016324905929921613, -0.021785725051796455, -0.01774692981161953, 0.01565867393433275, -0.0006278466716714517, 0.004375678269711234, -0.018524645299985404, 0.0057132869162709495, 0.0003717015345304119, -0.00266270104418214, -0.018854539381949097, -0.002750662638165348, -0.008786180459173142, -0.0011360372720621052, -0.002418419607179093, 0.008567059923627923, 0.0026997260148127807, 0.014854453892519687, -0.01545461790897086, -0.02009001776071782, -0.007145361907821284, 0.006695328090856008, 0.009091825551578583, -5.672278914951143e-05, 0.004136371828868354, -0.024419231313970845, 0.0015230864345551589, -0.0031528491095883077, 0.0011703747858009862, -0.009596365336904628, 0.005890918611706534], [-0.03696823019263933, -0.003592893516266065, -0.003880206094026691, 0.01620525803517693, 0.013082402575079087, 0.012530404049415082, -0.005582842848509746, -0.004164560577003561, -0.018217686175964424, -0.0056500256532182784, -0.007303232986111149, 0.00796688558443723, 0.013739121253357129, 0.008798451209671345, 0.003723668303956836, 0.01216758193026772, -0.0034422913046965957, 0.012123013030960562, -0.018855177809162377, 0.0011013175058659013, 0.00832069813537005, -0.012175878200348099, -0.028476621839146298, 0.00877824947965289, -0.02242522650818948, -0.004402606305788096, -0.013599652331290797, -0.020359521660943868, -0.009704860589326082, 0.00015948826896610674, -0.023955181440778715, -0.004334568245986714, 0.015166609471576867, 0.005634674332849925, -0.012931055374127741, -0.00045936854139425786, 0.029607779620716333, 0.005599547356504036, 0.012118945138516898, -0.020015236175205623, 0.010653362306311314, 0.004446589546275919, -0.005710866175482868, -0.017703736497120547, -0.01876326311551201, 0.006589721926779405, 0.007450704771009329, -0.0014188854488894308, 0.003957229154627028, 0.027907418335712357, 0.010698954491580336, 0.011857493923759892, 0.009202769686638088, 0.0142913113360746, 0.0015979408951650772, 0.021791812830443277, 0.00658740201792254, -0.005932600193942376, 0.0033351699743218183, -0.013812664172819972, -0.024017034769263017, 0.015357949107850146, 0.013529113721545518, -0.013216419673543194, 0.011470231083763228, 0.016429849321348614, 0.023132724564419026, -0.02206071380840185, -0.004215465913523171, 0.006675994467457993, -0.024997123475485987, 0.004654495212769483, -0.005408612682896115, -0.0628463881421207, -0.06834336468003671, -0.017799755562105384, -0.005396762130079265, -0.0015639327050933176, -0.015203719840825627, -0.02213592259598531, -0.009096274554298893, -0.02044605154273094, -0.018652458586406753, 0.004138382228102408, -0.02624465958273523, -0.008429448169524905, -0.021918183831260835, 0.008275505293271146, -0.022841969406584724, 0.004217477820909757, 0.002796902374015141, -0.007156840370503446, 0.03103910287067669, 0.016572884434076982, -0.007428921280933194, 0.010139517760791958, 0.09234358415106092, 0.008343009778316486, -0.2007923305205554, -0.2552365472611265, -0.16068068890193213, -0.13017666333918482, -0.10524938306788169, -0.023639109042854177, -0.010981153768859794, -0.018941887108891605, -0.0009051587720684652, -0.010910107543005766, -0.02285919404966047, 0.012208608384115584, -0.010075987076564166, 0.02016916747262704, 0.004298180233000434, -0.012188657181912699, 0.019433300816904003, 0.04046456303809307, 0.01157682114556557, 0.03604494148796713, 0.04443681366193231, 0.009216662344480252, 0.09350240984048706, 0.015295604723804234, 0.019952824962313077, 0.04555815340413132, 0.06037456629112624, 0.05044951238615357, -0.11029993989058455, -0.15547912688480142, -0.2803078037185043, -0.25157014057265403, -0.09380788704183225, -0.21302650975440807, -0.17807678131880564, -0.042285893765724336, -0.057254086836538716, -0.0070816096001228845, -0.01847806254794609, 0.0024034188458468115, 0.03171916613346363, -0.023712610069395932, -0.020338611476827063, 0.014745686817217468, 0.0024141801501271105, -0.0035477190461021472, 0.03349633362045487, 0.12393309599192609, 0.13734419469729806, 0.13698902707282562, 0.03321008012585481, 0.004404444686955653, 0.002038776213001685, -0.06538321934724681, 0.06620273343172113, 0.19808210395068457, 0.04349010698142645, 0.13434495946261255, -0.05550218495316452, -0.16140232370112612, -0.22879454547626013, -0.19785610721587776, -0.25388324842346904, -0.05351999884473826, -0.04571085454348902, -0.014096143376799337, -0.03241157244716618, 0.008332635487481891, -0.017934330335145472, 0.03407095809741575, 0.005492688915327981, 0.006577817647231556, -0.015305709299750303, 0.011237326787599946, 0.07958718823400687, 0.06353277029056645, 0.15989297730535448, -0.05301879650515231, -0.04562562998311237, 0.06913440389989146, 0.07261245614738808, 0.0673219945089768, -0.04245759824220233, 0.06463329276172329, -0.06656011119360242, -0.038597965632545195, -0.11300174382332545, -0.23360623548461135, -0.17130776923136418, -0.2454682906788542, -0.23926598928622603, -0.03506478116066114, -0.015156235905127975, 0.035448275955264445, 0.026608852985554956, 0.003179670748811115, -0.007077115740431022, -0.01039458560708833, 0.009992958092363873, -0.000136106500972951, 0.012509124465002679, 0.03743203220249095, 0.06928412668618134, 0.033419534878589806, 0.06838720216776507, 0.0025018776292510636, -0.08765939825100495, 0.025521724642430337, 0.003216290459247482, 0.021796330330745142, -0.01988828541626334, 0.05829627567384999, 0.06384582768136902, -0.1017110861374096, -0.11751263085770526, -0.1260607033226637, -0.22623832979996836, -0.3859671467878081, -0.3201200056007362, -0.07765765920577576, -0.0344716150455785, 0.007058091965646162, 0.039697327618934714, 0.007040691455720275, -0.05961604478061763, -0.03938041241141978, -0.012407408145484003, -0.03660794472271671, 0.005780287072807194, 0.03600445708295, 0.07776356460942897, 0.060065616722526624, -0.020156820734433877, 0.008102620802436422, -0.007097257811978114, 0.00345953126968453, 0.20761776000652893, -0.08358202214988883, 0.06722171787639791, 0.20119047069389526, 0.3213170469829012, 0.18899855773155425, -0.12599694929924543, 0.025623310545538264, -0.3374654987072999, -0.29789807766203624, -0.21353422799615793, -0.07093698857223861, -0.05891638721383384, 0.0014259543679361792, -0.03815865308105407, 0.003649004144612841, 0.011066274547299082, 0.03584058766001401, 0.002951606759254662, 0.03825183928088424, -0.005920529756106368, 0.012641522370147778, 0.10934830659146136, 0.12191829415985238, 0.03591803408209139, 0.07032663717003074, -0.061393229514734145, -0.005003130063157248, -0.029262145842349235, -0.051440680871576744, 0.06989030893153825, 0.25483381060294924, 0.4316042532264073, 0.2233105938510578, -0.1902465552531924, -0.16273171366413924, -0.25969653533865805, -0.17375329381105323, -0.2319222525761164, -0.05519825648863806, -0.04595303470278293, -0.01110274595212397, -0.026458829691739762, -0.03078356286634905, -0.019085160392619066, 0.02073642170800668, -0.017864645236486065, 0.0021711721778625466, 0.03389829515078852, 0.008890772648797536, 0.0383669802062661, 0.05661434265119564, 0.03101054692449044, 0.10717995933011218, -0.032134306738015206, -0.08089321674370885, 0.019036753253128456, -0.006785435820627018, -0.03477588320307269, 0.152636738111728, 0.3760689425601582, 0.025473167971562138, -0.08330559685378428, -0.1960070666026751, -0.19995266392074285, -0.2248999202677832, -0.19396824665682533, -0.009373365333651596, 0.04505510624795707, 0.03200566635329266, -0.0075364620028330305, -0.017246311758967268, -0.012826456484291242, -0.00598843235258259, -0.020662679567313623, 0.0011869239393261454, 0.012044183227639404, -0.021982917306687697, 0.04410659209519247, 0.06076603285238713, -0.019394593524546675, 0.0578845239064034, -0.03512631849678874, -0.10637124183005621, 0.023879842052608954, 0.1285663023567485, 0.08432375410122353, 0.18535245130309805, 0.27058086624860744, -0.019283045785968657, -0.22760337020287172, -0.26719563408353936, -0.35463807215739485, -0.22396129215987204, -0.13361134743005287, 0.015936952040100382, 0.006876481555342396, 0.05943143110166539, -0.12161012687043488, -0.08432660374105513, -0.0681212839032683, 0.00013223955563288907, -0.0071378342968870636, -0.016369416720813695, 0.025615035077190474, -0.005667981684714173, 0.03221237100574442, 0.014566764632279561, -0.1007603030782838, -0.1643738826427755, -0.15863460466747245, 0.030168923670787294, -0.0538944585556215, 0.04953432349980949, 0.14531159587066858, 0.24569261528096997, 0.34979082792066263, -0.021119319396858148, -0.04605284890740295, -0.28264123216123593, -0.1723945891183313, 0.08082708075356733, 0.010548218846758627, 0.022067956947556436, 0.05551568106191073, -0.07536364501579366, -0.03357251346968155, 0.02919553531128324, 0.017360531906333854, -0.012450906715944067, -0.006890240115981792, -0.024849568229103766, 0.005102339051499597, 0.0028978408725916335, 0.04690340534172829, 0.015244106896022642, -0.06495643155412162, -0.19663169182187767, -0.12090925019794543, 0.10924250366679271, 0.03709647979286453, -0.001382404289922058, -0.0017997215836472891, 0.10795300497595184, 0.11625368903462836, -0.06700033743632351, 0.051621299999172435, -0.08858503496012612, -0.012671422453739496, 0.1579597768687644, 0.10095610629915924, 0.030371181078901018, 0.015544791100902454, 0.009494794971435957, 0.07383530263904078, 0.09139388210288639, 0.04921764051547182, 0.018371785010526435, 0.02905940207904621, 0.0024531383456271654, 0.018282889370423567, -0.009025559273900075, -0.0027832874498861077, 0.038362502784226475, -0.04790439977508277, -0.18517697402698002, 0.02691520360244356, 0.06810096981865123, -0.036801201942282945, -0.14705294939445465, 0.04698937152029958, 0.16447902176044346, 0.17844464466552962, -0.07483164692002924, -0.018569270666183232, -0.13376648045308234, -0.15277927141150202, 0.2530756793463054, 0.0560481401544253, 0.10604498551661737, 0.13101450958837949, 0.12244384673140403, 0.06011066993280986, 0.06678033463571521, 0.029033426810562396, 0.002266974728935357, -0.018917872147368987, -0.004571809878208914, -0.009498140658520646, 0.013985985301858893, -0.04291409402318281, -0.05826136857795479, -0.04201263375193026, -0.09465396012920854, -0.028651383539976333, 0.08501042447870401, -0.0650990087321143, -0.06798091304683045, 0.13122717900170525, 0.28086840430774584, 0.13141353220469426, -0.17207211048477158, -0.004915718261339071, -0.06519391870866138, -0.10390088502668962, 0.13199332704509112, 0.09116531566597615, 0.12972979473474683, 0.09916175353120837, 0.06632991050994212, 0.16067794588683054, 0.054100157796510666, 0.05509521627573869, 0.016814834783476312, 0.016171742828381044, -0.01088368200708766, 0.009768930165785727, 0.008695763183701258, -0.02689894822941907, -0.07902607420873531, -0.0014792020583201473, 0.10348158831444494, 0.10571405393616845, 0.13872354696938058, -0.02886004020255497, 0.055036803982406644, 0.04641653644193953, 0.0592097232274621, 0.13594999099469912, -0.1800856501763795, -0.025022531982911017, -0.1816393029810068, 0.0014459481959456404, 0.007942692440057731, 0.05690682591033793, -0.032387717670057985, -0.07553534873356024, 0.05844657895754161, 0.10720149383997998, 0.05566718798906367, 0.04399703152637951, -0.0017512884426648485, -0.010640287535926447, 0.010902776262993576, 0.012728336724031366, 0.03798816980887948, 0.015489091408331473, -0.09364892021848166, -0.04184570328908577, 0.011428444316329271, -0.044663659460230376, 0.10626256271439176, 0.12062627937525178, -0.004130554792430635, 0.10913223334630569, 0.12379646577228168, 0.1724673937895007, -0.11476252130427395, -0.019230650260602535, -0.10516377164405834, -0.07993205511439357, -0.06435901713670139, -0.036548664543451195, -0.02591846276432756, 0.0005969619086092791, 0.04059890448424837, -0.03822280546409257, 0.02616952570457011, 0.009649657054005091, -0.008407478675035777, 0.006537810390163367, -0.032867341488870376, -0.015045968490853904, -0.02598269297808154, -0.01540548291273124, -0.10463758035516883, -0.08084635258111848, -0.06125872071748341, -0.0396098318037948, -0.05816207770197687, -0.047899362851401846, -0.08077202612566735, -0.14908721632771907, -0.026262524252301325, -0.10490931905303615, -0.14391475447296753, -0.11111946395001056, -0.1356033543754783, 0.015613517337514012, -0.12303471180424051, -0.04467966081867642, 0.05391341617553747, 0.03054208347725786, -0.010841702456353151, -0.05566860397834842, 0.021582486664287553, -0.016468544988087044, 0.04015718015360416, 0.018311080736847996, -0.003839217271347053, -0.011479748746250277, -0.0249177366150312, -0.008525386411328906, -0.07780939170922309, -0.04860986104343713, -0.06756867559461782, -0.12315541993060242, -0.09077776235820523, -0.18410500029666116, -0.06502452413658423, -0.025535191859080056, 0.005361307561431028, 0.03897943261338602, 0.04972913971669339, -0.03193304019003104, -0.12228584468136, 0.1326328185611164, -0.09978927850136622, -0.09821137065347971, -0.06648807983567263, -0.026668905475572095, -0.05275511069470381, 0.011604375229120901, 0.052752273298673165, 0.006985667023947723, 0.015718036928083778, -0.006065325477882479, 0.02405251904521527, -0.00656278168116577, -0.011111264454813809, -0.03869268958040894, -0.04469964405887798, 0.023087121964111848, 0.02763544220238878, 0.0037073469942724715, 0.06146191180961915, -0.2400414837569972, -0.060060828504995896, 0.06076113516201041, 0.03051225568677854, 0.16373371949615403, 0.12415872041813858, 0.11494121417793508, 0.08110112338707043, 0.11526943364258123, -0.04362651140766669, -0.09743966462205082, -0.072402710869779, -0.08254379331029663, -0.029781596040812253, 0.022328012186494776, 0.04977790050548131, -0.0038291902258323312, 0.020233798615829923, -0.013899865405430456, 0.013354796303408686, 0.019657043450778507, 0.006870787260260043, -0.010223940388421329, -0.0744471809541568, -0.07120253351440528, -0.015175225783809978, 0.033877119318087526, -0.05908736504868704, -0.1195412993895699, -0.03117268226760711, 0.09721909544143797, -0.1553436445051412, 0.04287147954826338, 0.11456523657775573, 0.12076089860169556, -0.0784697218524874, 0.04434706246922622, -0.015072408934687693, -0.052449076290115096, -0.09594185848617184, -0.11907564280818302, -0.060960301034673224, 0.007408068724668629, 0.03539008159175231, -0.02345678475004601, 0.022769361116107837, 0.012641218349123722, 0.004703498545534336, -0.020420412497969033, 0.0034985564793201434, 0.02744907396936008, -0.07837663285977514, -0.02165814308786767, -0.055823435237729035, 0.023231652385340563, -0.02520910702319235, -0.08358535777481323, -0.04560547377963704, 0.002302000137972275, -0.05372264297250693, -0.08410769674969941, -0.06658519035894854, -0.06578684185576074, -0.05398470407039155, 0.09611564470152707, 0.037436454880075326, 0.09396215281333278, -0.07427547367240633, -0.037200875146780485, -0.06099556982860153, -0.039369173518321886, 0.019635045679507787, -0.019181999384412528, -0.0190026634288388, -0.017704973082480695, 0.03871022678258858, 0.01679894335248177, 0.007316046891987956, -0.005196669673025637, -0.0703859559654802, -0.028270632213547836, -0.044449716141413444, -0.05433811298546139, 0.053378565570760206, -0.035770312463832755, 0.09735268678967754, 0.1411093234516951, 0.04424366111883216, 0.014039889828595921, 0.06764108777262764, -0.08265347192580713, 0.05272859637071578, 0.006201571280514739, 0.0393074003504557, 0.07410504091898787, -0.0035430996057942113, -0.04286450643983153, -0.042286260131003756, -0.028218669475775227, -0.029436369278231223, -0.0043063991780380876, 0.015385773461667284, -0.016170911146678013, 0.02102988892192926, -0.031133550989115584, 0.007934066704097383, -0.01214641188848232, -0.006346969128194871, -0.03389775207664554, -0.005038336660779305, -0.023352902897397124, -0.027512548995620834, -0.002450086788617602, 0.0803967156379469, -0.018883104351666014, -0.03406766641571579, 0.09138479096754126, 0.007639284934728272, -0.08524179391558914, 0.007901356834744806, -0.09280794331014522, 0.08047810099372035, 0.017654545138747462, 0.045921360783923316, -0.027590842624449302, -0.06771839595963537, -0.01093788262822019, 0.017853439908482108, 0.0239780477744567, -0.0129692271834907, 0.0069781979082319395, -0.003500240000851329, 0.025498844953948743, -0.010722495764844039, 0.027375982154310443, 0.05709645845129099, 0.02258064326614859, 0.04007799694468181, 0.026915187325302195, -0.012610101418195558, -0.06088145100645469, -0.025620212315105424, -0.010584560630125413, -0.037985131025159186, -0.027626382994153438, -0.005164219118661332, 0.02187851120663533, -0.09397528630000042, -0.0761937227642495, -0.0322653240868692, -0.008779281033124364, -0.04963516398868203, -0.010554163021327091, -0.028797952926809693, -0.0013883236196673442, 0.005302152579601325, -0.01796585515980421, -0.013284037500852601, -0.01983759514849275, 0.004118778268105011, 0.0005450643262444602, 0.0068043917622912006, 0.00456042041772613, 0.0071715058839131604, -0.008700538292641573, 0.023516343589376112, 0.0011789846491350694, -0.01365020108448731, -0.05434998966220457, -0.02802281420924318, -0.05741411678114431, -0.015975869316241103, -0.04264946370030949, -0.0066644897686094565, -0.03362184314389485, -0.024058049708019544, 0.00040027771917214473, -0.028490522008010388, -0.065393728914583, -0.012061261435220873, -0.0061536801359251365, -0.03934176914609966, -0.0035122219044211884, -0.0038908696206827065, -0.022013895128736524, -0.028679020798643734, 0.011394897764239003, -0.022892462916757582, -0.03990473916226386, -0.010399609246808716, -0.004937747656922561, -0.010833442970946003, -0.027484420243235053, 0.007979258745819362, -0.017088768438102222, -0.014085460236001383, 0.0026055962487425855, 0.016838640634058957, 0.01137118794365795, 0.0014750866398799964, -0.01528825040585557, -0.013364801510170882, -0.020149430259443966, 0.016096879289230478, -0.008855522244341421, 0.0016837466676684753, -0.017110981751593285, -0.007377012943869526, -0.005789547575468731, -0.005549515809620158, 0.01154682211980047, -0.010601110979171683, 0.0054951124891770235, -0.005850611071881282], [0.010438312120438149, -0.008951064444986667, -0.008154812366457998, -0.002770157457050224, 0.0008908497532975184, 0.006806647039423059, 0.019486653709721358, 0.00483387566105566, -0.00790073738816183, -0.018856134706598887, -0.009477651555467592, -0.003821998185891021, 0.008148741735581898, 0.015688246814975385, 0.006548763386092507, -0.006666071429139308, -0.010607282261218268, 0.000874398199262093, 0.00375222705033956, -0.024119755410258275, -0.02726535529084236, -0.02156985591724459, -0.027215665216047576, -0.0033380333390338884, 0.028272182365628385, 0.006033119949005322, -0.005322976453705309, -0.021663634371087613, -0.027358370882091938, -0.012410719391330894, 0.04308613218912386, 0.020649780429516897, 0.0008829446868895319, 0.001090395429306603, -0.004275111398336561, -0.006499140906424075, 0.014781694812118547, 0.00922423322011396, -0.0017796412681107662, -0.013076530206093126, -0.012262558288038052, 0.004980813954471526, 0.006955569192703653, 0.011988979610212445, -0.01866236315845521, 0.016386249700129082, -0.025737507792100465, -0.01337416530255327, -0.001835283804196984, 0.013959488071791717, 0.00761642641372547, -0.0047972807223820805, 0.037207912921799736, -0.009170346120074904, -0.008454998229627945, 0.009038330122065875, 0.011852382649858694, 0.023769264760922962, -0.009094646268876244, 0.011846748040872665, 0.01715393679366126, -0.028964671913738044, -0.016212784777705127, -0.017126234795270767, 0.007259888244201931, -0.014618922997071569, -0.01616683575065297, -0.012881478315383088, -0.007574277199317357, -0.07878813195681093, -0.03851102355319826, 0.00072207746484278, 0.023889940695019728, -0.01483049778534285, -0.01660446856141841, -0.05978173221096998, 0.008570464163516296, -0.02754341720033421, -0.027629280170268788, -0.028934519955557746, -0.0019066063481635827, 0.024030017351688398, 0.0033416599764320705, -0.011220757724452298, -0.02348463747184682, 0.01893623012921329, -0.008942311744758596, -0.017998896690376014, 0.02359680701692498, -0.008618470821518025, 0.005477819522195064, -0.0073252586425087635, 0.005060449246694119, 0.05059928426916726, 0.07512520111007605, 0.009035464464333546, -0.01589541735664363, -0.02822257703894718, -0.14005148250566746, -0.12915998618443686, -0.037568927553382, -0.04848054494426541, 0.048378981683374137, -0.02319401116146618, -0.06295249132114535, -0.02684201167428819, -0.04091850867209928, -0.04364171034525094, -0.013573230077671614, 0.001400068356714351, -0.004855529353015621, -0.003297627218228089, 0.019590231639245503, 0.002740529947766206, -0.002784133704505559, -0.012497601841883348, -0.009363986979824802, -0.009273698544622488, -0.013572758559407348, 0.020055603363792116, -0.022987028293653337, 0.0020741599595396885, 0.018350933895208546, -0.03789685387856044, -0.0026733280070424296, -0.08055630351691759, -0.03347492450144455, 0.03901051341751766, 0.006754549583248437, 0.005215293519371007, 0.17083612641539736, 0.16993012999479834, 0.17183388890126308, 0.012719472332859236, -0.04218208746995546, -0.04438823160980015, -0.008465703158708657, 0.0027572902970490433, -0.034191620207881045, -0.02062155034992235, 0.006284767352811225, 0.018958876210693105, -0.034596980887563314, 0.005145469820410935, -0.0063774606341232085, -0.015569355811191852, -0.0711030511260808, 0.012075504928735109, -0.06871867880946636, -0.09551890686613548, -0.06991926648237745, 7.935686964461498e-05, 0.007910742328916493, -0.031623234238154246, 0.024069666615987747, -0.04747650931861968, 0.0238789155374408, -0.19015469851747405, -0.04285107184518465, -0.12905015472645737, -0.03614465403002819, 0.1030117717602313, 0.04359853476094407, 0.0029068568152580783, 0.04727001756878266, 0.023777722867071745, 0.0003989921998643172, -0.01892252272773585, -0.00249824078255762, 0.0037523220944283182, -0.000772636641567906, 0.01776477248292469, -0.01585927719727599, -0.06255945301903644, -0.08290860828476912, -0.07845600061040167, -0.058765837266104855, 0.03247519313385898, 0.17085592461442078, -0.04991418533120307, -0.0278440895818357, -0.05553782452578075, 0.030652576960402512, -0.055095890365437494, -0.014826211010387596, 0.018398944418633885, 0.005706737921062173, 0.058894331646924966, 0.010556875540219725, 0.005868094328571523, -0.11473317624449768, 0.0018248421181691354, -0.05411883673007111, 0.01971510613677025, -0.020227310243512216, -0.01453757610331032, 0.007772314825624334, -0.014899015803363794, 0.003955410936535771, 0.0056751324781477075, 0.025144363619347396, -0.06817476865373924, -0.052443140964117445, 0.035201517916103875, 0.0342286333636392, -0.07275543115069574, 0.016562032816020512, -0.08475340961205222, 0.0024373404546580574, 0.1412261024922604, -0.03036055218591784, -0.06569398822972793, 0.018677297116317465, -0.03181870697012798, 0.08025304560177529, 0.16452854212327275, 0.036192151750848396, 0.10099801446341959, 0.07483736963063728, -0.04862945194443336, -0.04092735777024426, -0.002546592339446109, -0.036912647125985576, -0.00020787850759178758, -0.016287669579050625, -0.018377094826754176, -0.01675206104474959, 0.01699403848748367, 0.0208934787440801, 0.03755859016065252, 0.05412539055920465, 0.14837506511931356, 0.12436155982023887, 0.006600681565951196, 0.06274797792570781, 0.12827480887732598, -0.0362947455104198, 0.0004217644209747296, 0.09040531565925669, 0.01750934983968212, -0.01619801254394545, 0.06602971160491773, 0.012918776684047851, -0.0037237913374913835, 0.08766706354668957, -0.07346902600647377, 0.10596781867406123, 0.09743207000681504, -0.023367392389634326, -0.00292513656860008, 0.024218517376739183, 0.0005368338228649226, -0.010226941212810712, 0.009869901697715433, 0.02168195107193698, 0.046621875989156736, 0.10979678825118055, 0.16877533666442887, 0.1730470139491409, 0.07896795946921611, 0.16616143295262825, 0.18645082848067754, 0.11606453559761694, 0.05226843175704911, 0.07670520119792801, 0.23330840131556418, 0.09668628594485307, 0.149460378122321, 0.08417748630656806, 0.20258232586053387, 0.01292350037836444, -0.07849513972182522, 0.0038960106847178017, -0.040637697798110974, 0.09475397133535846, 0.2157876546759494, 0.06860975002202377, 0.08833142433634526, 0.053097358283655256, 0.03392125027910755, -0.00968555631088289, -0.0009708290117203132, 0.006931846349506667, 0.00829742658610493, 0.15039233316347905, 0.24225704116451577, 0.21273848611882842, 0.03539490042970728, 0.09737337465834789, 0.06621299562902613, 0.19443904331569797, 0.16943533101483552, 0.15882021211846004, 0.18603019538743862, 0.0075691862636448415, -0.059693002330675336, 0.05062322616003747, -0.0734297021900347, 0.0023802420132165323, 0.11449654625236304, 0.14264779595898314, 0.00795394277819933, 0.11285611704338183, 0.059109271810507166, 0.08218352480278386, 0.03505835217304325, 0.0888695285487219, 0.010748128197252824, -0.007023946734408673, 0.0002631188261968046, -0.006808118590782279, -0.011039755109155159, 0.14369214386969806, 0.19653667238593026, 0.21135069433413872, 0.15259063107815352, 0.07421767115494007, 0.20615342176472204, 0.07389519834974766, 0.10776379998400766, -0.030300025192890608, -0.27716206873117977, -0.2668513656408949, -0.23457505405416415, -0.2147267733978476, -0.09383995985304038, 0.03699525184772944, 0.05056671380087303, 0.14611136356671564, -0.024255072626426472, 0.03730426586764894, -0.01587198505968348, 0.08166924070881325, 0.03973793864010218, 0.026082200671809243, 0.02616546633378378, 0.009755740409344288, -0.006152947823639638, -0.003988664722965031, -0.006665544643499609, -0.053446134527511, -0.02715839323511526, 0.0794838238532418, 0.10818324706184321, 0.009605991045422164, 0.030395301995691366, -0.18097495221007354, -0.3303912383976395, -0.483326917845205, -0.6780952299302129, -0.18449739353368205, -0.018431334094284917, 0.0598645870478367, 0.06102127876289527, -0.01688320226225248, 0.039225336514308214, 0.11979667065894584, 0.008613343422599649, -0.08781333415328574, -0.0773306175839242, 0.03361865039000821, 0.06979062050287164, 0.07768651484141428, -0.018839713649065296, 0.021682525491117488, 0.012412408775236658, -0.011759146028792107, -0.026089434090448938, -0.24412944949716686, -0.17364009050732113, -0.18465674011739008, -0.33078678742505135, -0.31411648376787293, -0.31415914591787797, -0.4991567637957111, -0.4753534362201564, -0.48425515108896267, -0.09161457453336051, 0.14566136948347044, -0.047668632270047646, 0.015550292615401166, 0.12269246489416175, -0.14056210079884418, -0.13240798122786457, -0.020804652349832857, -0.04729200193542368, -0.07635286292060263, -0.0672192348430984, 0.014877736830224454, 0.03916435676912132, 0.04495904039548569, -0.012468669904852394, 0.027582151945292243, -0.017080263389391743, 0.03708090666542757, -0.04278901244247466, -0.28120616188063746, -0.4878297798959035, -0.4073935496175853, -0.5017609966200504, -0.6739924966290508, -0.7003385390054705, -0.45787571124374943, -0.26640569090181243, -0.19553827511491612, 0.1563605210016507, 0.12625797897050225, -0.05566659036396253, -0.02538509246721841, 0.1343204598577981, -0.0733394988340877, 0.007150721037774097, -0.14898496522960863, -0.1444944957220075, -0.1400213923505681, -0.10918980512278836, 0.004643440299633272, -0.026485543499734674, -0.015020429768960238, 0.014297329768778429, 0.015759483584705157, -0.0020289896635887475, 0.026807828150838407, -0.006695586726491914, -0.2737471420929223, -0.45587802059682714, -0.3703171679818037, -0.47905147103626194, -0.3693527149441661, -0.15094650708635263, -0.016118357997690288, 0.1480120775524532, 0.04284381935799423, 0.2757695535718373, 0.18059126268705053, -0.01954619494340559, -0.005994758734012193, -0.07413316190260849, -0.0569163075451274, -0.1307805079402166, -0.013657871655691484, -0.15567939357865201, -0.14407206781927887, -0.15066165725738864, -0.06488205309300989, -0.0990102121979464, 0.00782817372921126, 0.032630404757240064, -0.00018163874022401161, 0.011158928255206719, 0.007821577727127655, 0.03687727334394306, -0.2088866620792968, -0.2940053156270925, -0.26859201394073656, -0.18675751570965837, -0.05611396012393161, 0.1830021624150528, 0.091698699956141, 0.11717769445270157, 0.06371722351606247, 0.10269200959058267, 0.10173010817255564, 0.06677792777687153, 0.09332143162411105, -0.01108750914173043, 0.026879384717510096, 0.015126829108078615, -0.09896650751046612, 0.12354193889717573, 0.014960395155398869, -0.09237094311022995, -0.048083656904050094, 0.07323941630749095, 0.031204063613026356, 0.011811370131958371, 0.03772860209301463, 0.03469473645020088, 0.002469791705711191, 0.019250457596342346, -0.09963074791052824, -0.15133869124165342, -0.13160030934135986, -0.10935657843721427, 0.0718159768954052, 0.07379663879500264, 0.07552618953219334, 0.12308832938780044, 0.10952530126923744, 0.08935042881987597, 0.20249561366014893, 0.06702413718505237, 0.0798685752189942, 0.044829908546279856, 0.013840345783746641, -0.053718315604504026, -0.10688962218494036, 0.11898117162021886, 0.021588904438615976, -0.04331292303965938, 0.07128375335694022, 0.11324714822488588, 0.004464813095457007, 0.0057498218516421114, -0.018652662087512626, -0.002127556180760698, 0.010471677388744702, 0.08515249732564364, 0.007944322271794027, -0.08541132032092948, -0.030362070069390575, 0.057661865085956956, -0.05543314963659892, -0.16296992325345705, 0.030345071596178174, -0.025769801293730504, -0.012206643868154994, 0.13498242505708669, 0.12967726567844734, 0.16048894350199142, -0.016013860097653956, -0.02591506221166764, -0.03706768448754947, -0.059940119432709243, -0.19805634500878308, -0.05587867344645174, -0.11232583948944712, 0.00808252015781372, 0.10326680779796521, 0.08536842723635599, 0.033046727232949484, 0.03024525076868146, 0.017867502609668566, 0.005854586385717313, 0.0063192921937809425, 0.04176845542284108, 0.10755002699402678, -0.09538132955719403, 0.06275869257051674, 0.12405448147756354, 0.10085654206488484, 0.05564504052903197, 0.08765189282683858, -0.001059296098583592, -0.15470285145884471, 0.1322746162778558, 0.06500409498772917, 0.15473678486072295, 0.15116616123486784, -0.02696937578715024, -0.06276441649473181, 0.06235806421030024, -0.028931169881565005, -0.07522893168721173, -0.1644127800757176, -0.024387946648244393, 0.027367063431205343, 0.03552904176583726, -0.001494040906782501, 0.020693738671698488, -0.005966491904486673, 0.014329828273339186, 0.00866567049530207, 0.04593962473604276, 0.11731096891295996, -0.05166630659836896, 0.10473393755021801, 0.18103663261432845, 0.24139943653567433, -0.0028500322328866242, 0.05221510625533742, 0.15583130966351225, -0.03728377013536568, -0.05496875988556276, -0.08541638971920343, 0.10448762182513752, 0.10671982484257342, -0.026494827920372714, 0.16208852318429043, 0.07779562182378917, 0.024151004546325475, -0.056668404001777715, -0.08667011171349712, 0.07289027307308485, 0.0693661375204576, 0.01569211367036811, 0.004608308485371556, 0.008548210516935092, 0.0012178582925833933, -0.0055391617365160096, -0.0022316915081408662, 0.08397814616139018, 0.11204778248121498, -0.05179676271678788, 0.06555937999115055, 0.047273695415922815, 0.046197197021525166, -0.08297129164899897, 0.14561348591740994, -0.02070993220013525, 0.024171501459894846, -0.014551456285812054, 0.022804998380844304, 0.07794732619442436, -0.008721007590382905, 0.08884597909840933, 0.24231903566525378, 0.14660543112955268, 0.02826092008582574, 0.2033386136542271, 0.04997046266051843, 0.10614543924650444, 0.07159370067314332, 0.03728870659651246, 0.00926882797636608, 0.013517283517806063, -0.01580841184212767, 0.007496232723296164, 0.012629957605959512, -0.0036189820184652916, 0.08017606519241793, 0.25277828355328824, 0.08865288293565725, 0.09833239766381074, 0.07787820348564206, 0.14731005180205353, 0.030438379866381707, 0.06285173629389786, -0.08988567781210247, -0.08569326583549983, 0.010881426689839864, -0.008563180223911065, -0.15391534771971793, -0.003454305182984974, 0.12802749097968552, 0.16020948421179285, 0.13277536846827778, 0.11168902152093425, 0.14148890487188281, 0.07689106723083511, 0.056648220189740084, 0.029853665740644828, 0.00955518346592384, -0.020156063567635715, -0.03220950937121394, -0.019779728839418812, 0.02204022420943713, -0.026330195654693744, 0.042535286014210444, 0.027529496770648552, 0.06738465928373083, 0.05271401930650793, 0.008609408044490102, 0.040014201825750176, -0.06200139739026639, 0.05386347213818465, 0.037760506282869456, 0.06618381758755525, -0.01696650645836003, 0.06385894935033666, 0.07278712117228482, -0.07013174526913452, 0.11672498342914614, 0.1314900787387072, 0.08256167403313418, 0.10419821081572037, 0.13127253549527243, 0.06563763189696353, 0.02579126013733918, 0.0378070509314989, -0.009211720619633587, -0.014546520749478735, 0.019282698118695072, 0.022438866498399046, -0.00989514145814539, -0.011481545922554903, 0.06623784991060393, -0.026249016494623016, 0.058019395676016786, -0.006352183212577101, -0.10786813642589155, -0.0539512617839951, -0.07845069791783077, 0.08936074468880621, -0.06944016662608671, -0.13441857984835756, 0.022634087511809377, 0.07788488069904746, -0.04287191950659111, -0.008134119318719133, 0.09023894102439434, 0.13037972869154224, 0.051022589476743575, 0.06714631135325787, 0.06787712872357458, 0.025271473405766406, 0.049602501768559876, 0.01701295563800698, 0.009697134305649144, 0.028833356073864207, 0.008974439518582048, -0.007653095726624396, -0.047150445986312614, 0.009128071049543622, 0.04600297461366913, 0.05034560410990196, 0.04078739077414276, 0.027387888024621228, 0.11627511388842904, 0.075865045821108, 0.15193426013216427, 0.018419884987979706, 0.10601625818089797, -0.03442833507479616, 0.003624932629805646, 0.058416126228408256, 0.026482289438083204, 0.040695023887897905, 0.029658971643584053, 0.10854234298731875, 0.04921414405118322, -0.002717216522385718, -0.004906170995736964, -0.00750311221803233, 0.006848031944346922, 0.02902304052964738, -0.013838132476747343, 0.02433155487248808, -0.019340440986881757, -0.013778712576172986, -0.004180262029387844, 0.022695017062172394, -0.007496107308719346, -0.05742424225893586, -0.028312287571153318, 0.005996774977299885, 0.012771213676562051, -0.02854248214364862, -0.0199287704124425, -0.03217165565980504, -0.03381364803285692, 0.002679218129872969, 0.07854309064461026, -0.029601717232992136, -0.07243644991903324, -0.019140768501955854, 0.013834471295934745, 0.03342387339328999, 0.005058797099436995, -0.032136123924775425, 0.008655880514427066, 0.019468388228926492, -0.01662129754532756, 0.005795733939057348, 0.016644227436274018, 0.02067521220680375, -0.010536924500753728, -0.011141535389323836, 0.019241739595780124, -0.010925617223905457, 0.0009533787905693943, 0.020816646167836097, 0.011356315587425914, 0.008003049182173712, 0.00012201339829424195, 0.016857250204785987, 0.0009292855653694564, 0.0058277334750546275, -0.026172031688633784, 0.0012590887412577251, -0.004327412498903091, 0.011882086711018659, -0.004530064351119871, 0.029979853447787676, -0.020203805574216742, -0.02666527325597489, -0.02995143623028639, -0.014629894510363459, -0.014353396906894593, 0.004647766425605608, -0.039190136415070916, 0.014865654866302909, 0.02756891372525094, -0.009524264765664045], [-0.0010289660954165517, -0.008742987984834654, 0.027122300737727898, 0.01978321843613396, -0.010455598446395277, 0.0013676479240474874, -0.02030152018473242, 0.01599781267810477, 0.0050170156795365265, 0.0046222359802666505, -0.001993094189315875, 0.018107457608178473, -0.016126888468942814, 0.021152777025481108, -0.003009244293794213, 0.005006524924645828, 0.03018640084099397, 0.015783396245190578, 0.004531288043809077, 0.002395061632011585, -0.03299285232765191, 0.0016288399667209604, 0.009611518804988808, -0.022464677608041352, 0.007060227708656628, 0.003951644939364812, -0.021223350010522793, -0.00475644676460358, -0.0010926375659976403, 0.006167204920438353, 0.023699715369608007, 0.013807391128247507, 0.028950691749225824, -0.015260086648539138, -0.007313427554507831, -0.009062536341038572, -0.0098714120976546, -0.009550038409528654, 0.006332971760008177, -0.014743846771395631, -0.0022773811376247434, -0.02361938381371775, 0.031180242573394364, -0.005087811986902434, 0.013876995211440172, -0.0027306986684801277, 0.01367570877319217, 0.013364069146897016, 0.014273033607934119, -0.015900258533662448, -0.020791035757811088, -0.015322428417261946, 0.009355032117513668, 0.005156727301066566, -0.014039805900958876, -0.005585370674753235, 0.012140722825724285, 0.0012917672933629057, 0.03281750703105508, -0.005167835134184089, -0.0017050418541864963, -0.005930429076661016, -0.010888906506552297, -0.029899412971714386, -0.015080857312618002, -0.04615843672361059, -0.04578822003198651, -0.04804710606057593, -0.019010421200737152, -0.02219476073917903, -0.010496180286188258, -0.05345428595306529, -0.06871624029134238, -0.04494443690411037, -0.035510783342344636, -0.0063666088430332024, 0.05061816948400476, 0.012069462321551976, 0.010571097527481166, 0.013084739096443488, -0.014577510620249914, -0.008679877477829003, -0.010945461493278389, -0.005858531915002406, 0.01071663724753956, -0.006172492857031955, -0.014692581550777857, -0.01819300061798368, 0.006091363443526861, -0.0023057262604150165, -0.07065535168880914, -0.039019976593931756, -0.09199930177289928, -0.07752399177423028, -0.06966255198236804, -0.11279123834511232, -0.10972904305449241, -0.08627191360454926, 0.03179413587554898, 0.07177402354789002, 0.1067070634235522, 0.07214911976088653, 0.008638114800825282, 0.008833058981140876, 0.0994559303348085, 0.003620833736545285, 0.010247423158617654, -0.019260550737128727, -0.026123308630055065, -0.01847817750149845, 0.014640831979500996, 0.00010152852454100978, -0.012916377780937594, -0.015227808322024618, -0.0020844798531519217, -0.0023946496235293566, -0.027495816248898436, -0.03695269541967633, -0.06983836492194713, -0.12948898568647202, -0.10168442078659806, -0.14797705043773238, -0.11968044817968211, -0.04832560312257463, -0.06995333555047409, 0.02904506312096389, 0.03602031468273916, 0.0038630465317200462, -0.02542750532554008, 0.10115693221664049, -0.01639587956816066, 0.015534219644135549, 0.05406144692050133, -0.0007086302393896094, -0.00883516560814206, 0.06043902744518327, -0.0038850773978581763, 0.025458012032787716, -0.0036540068656159166, -0.003141953409895676, 0.006234080163969744, 0.0008328692291734443, -0.005182745048449542, -0.01504441670347479, -0.018299934617069375, -0.009473134657165644, -0.04031380888767637, -0.15482508737296066, -0.12254114532906758, -0.09229661923616359, -0.018095122873114124, 0.06379807386787217, 0.05907895887656194, 0.059526486794657295, -0.01793306056237101, 5.579174535458364e-06, 0.11527480928416742, 0.027264008040891907, -0.04150473574360581, 0.12036972476186415, 0.05465929326694398, -0.0044295504023118505, 0.051847865570606014, 0.11648928777456041, -0.02058586318238936, -0.013473985944628529, -0.029287013465090987, 0.01778332193276021, 0.009706014526039806, -0.0042548719937697665, -0.0011357474185562722, 0.01833980046328489, 0.011921593910682112, 0.03274763998057421, -0.021423919533484305, -0.15321034489174637, -0.07494521294996422, -0.08103208649822247, 0.04679417730705897, -0.056259989290296075, -0.0520590832046461, 0.028497192463843156, 0.017679364993374785, 0.0010886217697308868, 0.03256892291427766, 0.07408472144091546, 0.09218425609492369, 0.11961252236986986, 0.21815545992510613, 0.1569719543843524, 0.14909956182115386, 0.13250724023589655, -0.03937536405988267, -0.04684249461646833, 0.003558114928278041, -0.022786153522280132, 0.007582207685790959, -0.010206067144504637, 0.009749210630655224, 0.03556053342630194, 0.015267164885779217, -0.02224257489977081, 0.049971444595071524, -0.013011327588880869, -0.02648289625866164, -0.09926754160151678, -0.07882332062164589, -0.02510097186579329, -0.0035822043108682303, -0.0641847854994866, -0.05694992260458391, -0.003733290745371143, 0.01841196952847741, 0.029722807460364303, -0.0323994347739606, 0.11682305801509184, 0.18401982505811956, 0.11604674884128487, 0.17880282178600104, 0.23153420345636716, 0.033349722829351634, -0.0642307662379938, 0.010462666376885726, -0.035337595629585314, 0.0005349459438566748, 0.005253314877946843, 0.03166112111224819, 0.03396939185605602, 0.0002351821773057819, 0.02755063787334984, 0.06640610443238013, 0.05563751583547929, 0.08335266733754353, 0.06446104048393093, -0.020422372230279418, -0.04902902344031105, -0.06425702612257748, -0.11008939888821846, -0.03939953620127257, -0.05420124275559852, -0.08994791086737647, -0.1450446357286914, 0.0629092664003514, 0.12266044571221292, 0.21146248316565602, 0.2138001811665635, 0.19367309494495355, 0.07479111615322792, 0.015521706278056165, -0.02943942389835076, 0.003190143897907084, 0.03078407845712596, -0.01569257503819554, -0.006633607689612389, 0.01734003594897318, 0.034478086614214025, 0.0034076628209666784, 0.051255384299458945, 0.09201668881750615, 0.08682692614015691, 0.13042380078512195, 0.07654209449933783, 0.030085396170217805, -0.05717643566600463, -0.04911402748141049, 0.029102696634781388, -0.0561508409832189, -0.24310341195158933, -0.2606126390314951, -0.11551771717515764, 0.13889370672378426, 0.33696642891640016, 0.3324775974171273, 0.161888867088405, 0.12434205432623023, 0.1347864682653497, -0.0033075827669763625, -0.009659329624877182, -0.008462910166048221, -0.02823578921161162, -0.025359908542654307, 0.007627238532803972, -0.0034484720955169825, 0.06720311976753857, -0.029092149597021177, -0.05252971047555136, 0.06842303431614138, 0.10792140504796334, 0.11194727047869696, -0.032236150633190075, -0.10197988046630836, 0.024979655328194968, -0.041463365187137106, -0.048238216991313365, -0.12088649401188709, -0.14423700135487183, -0.24248833433609152, -0.14114148311772445, 0.03779959170283218, 0.2759481611966955, 0.2599672126689236, 0.14158947428995516, 0.14951348893286634, 0.12036898242116718, -0.0396597946632991, -0.024679455369923435, -0.005110241491456163, -0.018648925494953082, -0.025070984152990746, 0.012967067854400388, 0.0321141588209421, 0.0168005687309518, -0.011833109031239084, -0.013957619250612278, 0.05959117905847903, 0.07281213168779375, 0.03784363487578836, -0.054542677627000734, -0.0207720286518114, -0.038960801840164344, -0.04621937900566564, -0.09936630623707239, -0.18288017395867118, -0.1718655778645996, -0.26545783577913695, -0.1487872256770849, -0.05881134448152461, 0.21899262307556921, 0.24253950951687683, 0.10104024888571513, 0.18150646403911794, 0.09776532095966092, -0.06559475878537223, -0.06741312783581799, -0.02154734398434044, 0.011888962431553154, 0.006870676970257974, 0.014951955166927771, 0.00156701261846875, -0.018903020746475093, 0.07141824635037003, 0.14144294003087546, 0.13872336458978013, -0.10313039804277792, 0.006433819615065202, -0.1153264047181173, -0.030298404785824986, -0.026631416196605542, -0.046926853298626905, -0.12939162076885002, -0.11274813533486891, -0.17350174469981355, -0.15981495890694675, -0.06561523372269223, -0.10079596306066484, 0.22063652856977764, 0.24197672569131745, 0.1565012303583918, 0.22294988158866913, 0.05783980941234765, -0.08164589490367366, -0.04533764279363132, -0.0057056850030035595, 0.0034766613759411535, -0.01381749163418765, 0.04069635371248995, 0.02641885706672042, 0.031291027208827676, 0.12669192255205225, 0.1210792087587199, 0.01785648952452091, -0.05863653070975399, -0.04172876129940488, -0.06369440258385087, -0.05640382032147111, 0.08745222913992805, 0.015367876069094835, -0.15215142562698708, -0.07579042975311667, -0.10834097593171502, -0.12892772438503544, -0.05595587954655162, -0.04310725746716559, 0.17056328352087646, 0.19354359260537346, 0.1562199972367703, 0.15155374166438618, -0.015794626777467013, -0.06735605448518843, -0.0009371363748586895, 0.0032988856784575546, -0.009749337124902965, 0.014161276826883732, 0.0010263156374491279, -0.0041341901308062515, -0.01627148699192352, 0.06966556770326, 0.04878931085984644, 0.008855602072255109, 0.023478348582304236, 0.029207855759981662, -0.07666255233862715, -0.07789326234055187, -0.01882640507653547, -0.01522360400515373, 0.01907245237846588, 0.11559631860100383, 0.00704705024638491, -0.22750112917525225, -0.19630361480495173, 0.0476277475499595, 0.2575781527326268, 0.1391588015463907, 0.06587200258031745, 0.037312787844217876, -0.04596929886890564, -0.023156069269241818, -0.021768681252163077, 0.021719158968228642, -0.020463121404321424, 0.009627241450884567, 0.009589919222085713, 0.015171898434477596, -0.024105327186777374, 0.02619895927105906, -0.04748758853516129, -0.016493180608175645, 0.005866251051780566, 0.002350114082545151, -0.03372443492342221, -0.03459328144574137, -0.07595347560939902, -0.049860119292341396, 0.05564707020212203, -0.0054531016431604105, -0.09920683564649116, -0.2813128558810409, -0.18667957268522706, 0.14991380375348876, 0.27281787530791723, 0.14523447563490402, 0.0344188416040315, 0.0708009361652577, -0.05112324066003289, -0.015246382679959113, -0.020012992190388098, 0.03841426220654628, -0.030716985179728207, -0.0069490876186172855, 0.026159630679458062, -0.01952981992630172, 0.0022659238799789083, 0.031228252997618174, -0.008888077024355316, -0.0005810508792383318, 0.05299808299149694, -0.012707889135524874, 0.0334023460146609, 0.011696932339133603, -0.10245425012084851, 0.02593073407758426, 0.10587792468739243, -0.01464138303017808, -0.11278356975310874, -0.24585626783889394, -0.01446335382833251, 0.23014983161500469, 0.1514265294511035, 0.12538163695175444, 0.08831181983126096, 0.06916304909022795, -0.08167489038381813, 0.02981643120434343, -0.03506183063594498, 0.008739043566461097, 0.0008933902288251899, 0.010103246793516395, 0.01038152979226455, 0.014145781998229304, -0.010561431887130218, 0.061189960305331734, 0.039714451529246644, 0.013887276363699285, 0.04389748028126105, -0.026183129604425582, -0.07970987291536756, -0.08382978529185865, -0.02557611328737481, 0.0761397687988516, 0.026127079172160787, -0.09190875382682383, -0.09213731464934097, -0.19085857359537914, -0.04192206614176028, 0.09026808329957511, 0.058871866257343426, 0.03774080595021726, 0.11267257289458892, -0.030298296825785633, -0.09316616190868723, 0.014019565786976166, -0.027669378203608496, -0.00013547069476415338, -0.03390249297678237, 0.002465624037230547, 0.01990666472974499, 0.010947049740566005, -0.0808742905753883, 0.011705996163838555, 0.01804786606900176, -0.03087847921851609, -0.03633186743925303, -0.031615336945429076, -0.005925096774371419, -0.096833134804153, 0.03621868766816474, 0.00012425726533170405, -0.09237177780551081, -0.08017194501637237, -0.08209485728761223, -0.12193935283730868, -0.015284779650032635, 0.04320558272691291, 0.07259553229868025, 0.08385411422074364, -0.0062358831198347075, -0.05654473598100449, -0.10500807054357214, -0.01453749524299761, -0.024950988197719553, -0.0008981380620980356, 0.004920754383328299, -0.006459805851404079, 0.019713590792534572, 0.009232581953782421, -0.04340348010817622, -0.07101349935943577, 0.08839894664673106, 0.03557406494554838, 0.010408845727484295, -0.04839461387741932, 0.02235076876921698, 0.02058392704265801, 0.06549018098022791, -0.03676665782087758, -0.002945844946456082, -0.056564298163040844, -0.076411352024091, -0.08568834751942074, -0.016179711591622598, 0.110435435706272, 0.07856689918076235, -0.053033367288091, -0.09134598199427124, -0.07469230168579874, 0.021076286131099617, 0.010509639969394238, -0.014358300791782064, 0.013850756718643276, -0.005105421606311121, 0.03589341707457149, -0.006111439596371004, 0.009263935533736094, -0.03136968947150223, -0.08010303369225183, -0.03711927021721944, 0.020638788318282034, -0.0239876367748427, -0.015160205374150694, 0.008814625361498863, 0.008579977539066067, 0.05921717368583177, 0.020315774315321014, 0.004073514876257419, -0.08171099472355467, -0.010230857687798117, 0.0013790071558198618, 0.09148258409782545, 0.09046910370190916, 0.07303759466511432, -0.037974258999869115, -0.03067069878218674, -0.037363826661358956, 0.06094008105999295, 0.06410146305093843, -0.003732905001434555, -0.032483991544466344, 0.009492152245825903, -0.011041519523176634, 0.002092856449772684, 0.02679515252812439, -0.0162961902234134, -0.05482646739554695, -0.046235458658242, 0.05544936293700955, 0.04208588703616955, -0.007257003130507825, -0.0417884248013819, -0.05019249423100809, -0.07329691367569137, -0.037179795865114086, -0.006717384892422604, -0.024710556484089066, 0.045715213105080206, 0.040350335508804284, -0.08015224197888178, -0.06726900896084043, 0.10233609912973084, 0.0016231538339048775, 0.04034509904925263, 0.016903036799715467, 0.05131698112236582, 0.11557894273467392, -0.022589887791345305, -0.008110752827035907, 2.8251298668197857e-05, 0.007562531935866286, -0.012864790313132249, -0.0004124317408012096, -0.026904274935497435, -0.0004961333847664914, 0.03480313465316438, 0.1452972370011748, 0.07084303400184776, 0.09488277092444378, 0.014832621773107261, -0.05010141019340937, -0.08647454861293116, 0.02685713513004888, 0.05958414150402938, -0.08771423211003845, -0.039551651380683686, -0.05233914491320253, -0.04303617441417922, -0.03070121154886628, 0.023288795821850325, 0.015379155082162132, 0.059425223263045765, 0.05994331952542426, 0.02678609085099212, 0.07520887875731487, 0.027079032847940557, 0.005994134427363416, -0.00538253766305464, -0.0018188356107492745, -0.029365146049740266, -0.002849736540599621, -0.023995294842147696, 0.010076625357713547, 0.016482399049605155, 0.1331605355773226, 0.09586819180963228, 0.01714362022452052, -0.046617786940211826, -0.04410732934314784, -0.05333625246179166, -0.027401867708276656, -0.1218623380178026, -0.003252472341211936, 0.06429132097412872, -0.010122175156905777, -0.011289336458594675, -0.09764838191207116, -0.10802580581538453, 0.00947579421756435, 0.056405583716468685, -0.005708322532798055, -0.008803847507547181, 0.055719553304170895, -0.011484551739276174, 0.010758236764431543, -0.017636103569629368, -0.0035356455492491475, -0.0142867164880321, 0.028176720405050457, 0.02246148817672602, 0.02230129302719277, 0.060162186044131365, 0.08118007634387961, 0.10671609085537939, 0.040378190633061306, 0.01082824294645462, 0.03959240377748778, -0.0060506151784616045, -0.0897591992761625, -0.10715594625137065, -0.025310343842812853, 0.04748674192529232, 0.022621765676980286, -0.06342907648366324, -0.05665812487753998, -0.006907971061758544, 0.03237601117228418, 0.026874513053223692, 0.016635961752728787, 0.018963508741769174, 0.013615711109320135, 0.007318751206099953, -0.010091514079278125, 0.022064464078480003, 0.02010903500530296, -0.006960782814946219, -0.00016716185926548017, 0.006647780578630222, 0.021940458287230395, 0.006829259572194918, -0.038967695771220695, 0.016237211741976183, 0.03890283294547134, 0.05118439928596387, -0.007189759647346613, -0.05650385350076311, -0.07562751621740624, -0.09250465192317792, 0.007626090529856402, 0.010131748681144186, 0.033221682858991464, -0.0022318306360504213, 0.03633473943270763, 0.013679555928952985, 0.01054121133845496, 0.023722860842007965, 0.0032079926407423158, -0.012961546890524056, 0.0016387743256562736, 0.02312540437558646, -0.01864984321262524, -0.01236539270730359, 0.02818763442034322, -0.013804811489741385, -0.00289492950441529, -0.0029603457044076464, 0.005977693535503085, 0.02952489904625345, 0.02507690000632866, 0.060421780140055885, 0.10223816112440717, 0.0416919389403745, 0.01705744010777702, -0.060656087051336606, -0.05431186325600672, -0.0055979842549492165, 0.017974449794552448, 0.02124363866978573, 0.017706476285849707, -0.004383794291579818, 0.001808192423778896, 0.0008066423990701752, -0.0026699797254744304, -0.007046081777878432, 0.03799526551793842, 0.003682626887868131, 0.021675039618412186, 0.011743839119224286, 0.015539139821077342, -0.022052563696211648, 0.013659624963816409, 0.006296914095437473, 0.013027377349760921, -0.008331292190526278, 0.013334165674055539, 0.019072299832723356, 0.017618779795238328, -0.021019522463777092, -0.01971496526157287, 0.030143533682799935, -0.0004983497115357775, -0.013749355670656214, -0.017156755192632586, -0.007154572651152729, 0.014389105939772112, 0.01884285162540258, 0.011166724566685918, 0.008005173887977066, 0.007837465299095918, -0.000995580671997513, 0.01622888676263604, -0.020352951397120823, 0.023833827426035792, -0.0006087524329966925, -0.020626211124812506, 0.009659906819781823, -0.01466346659094584, -0.0325778226440625], [0.03299781248352466, 0.01555759379769862, 0.020230655298833736, -9.334456517716572e-05, 0.021178189484487537, -0.002032487832240874, -0.012311315700054287, 0.005404120176138069, -0.005609214060445493, 0.01745489820290699, 0.0028336084318776916, -0.007366603462606684, 0.019824547595158906, -0.005359092387369162, -0.0022074698286965347, -0.009446907045644829, 0.011266805445662257, -0.008644716662377983, -0.022571494442632126, -0.000416600576152661, -0.00541969434619328, -0.0068271150435240905, 0.001312101347104408, -0.00531701582032327, -0.002882993671833969, -0.006374526055025205, -0.007879204066006477, -0.02523279589397398, -0.006470771327111888, 0.015206937905181241, -0.0063840537062633314, -0.0015360023371931873, 0.002606390937069179, -0.01913158320996417, -0.019584143199719278, 0.009530758046543096, -0.01334443182409359, 0.003352112528873969, 0.0011277271809050208, 0.015032140510344082, 0.008873302115392036, -0.0013451492831758134, 0.016896163679660063, 0.002312711029756325, 0.0035442608248042887, 0.01293018022018672, -0.007724185912509828, -0.019965552319334123, 0.024914267970520335, -0.007177599333182796, -0.009867960321821414, 0.04428270492061397, 0.00657468669639979, -0.011539370244204393, 0.003273687447033539, -0.022978222034170877, -0.007224388607774416, -0.02426388521967278, -0.016227082697161967, 2.807058984384997e-05, 0.01925718761549749, -0.009795931118030236, -0.005359748005414821, 0.01073785952611328, -0.011087070427383456, -0.0010414425973156527, -0.011229548711187035, 0.026438749582853572, -0.002322097296666948, 0.02071885626944611, 0.0080628252991879, -0.01995569952787577, 0.06308991180518081, 0.07717282536405681, 0.07782583994703157, 0.08028786858300536, 0.024247234501378903, 0.009775902227360253, 0.02361780169331895, 0.014414780308052495, -0.018309236008727223, -0.009635597637955804, 0.01533824127660666, 0.018710461666865245, 0.005777267333683328, 0.006239553299562773, 0.0009299028312013988, 0.009265221082710861, -0.014270880182553717, 0.021716472134373176, -0.01028851220781528, -0.034982510687310515, -0.0723920366641811, -0.035870767870852256, -0.04075786590388351, -0.042824476384667604, -0.07241604375008237, -0.017497616811159723, -0.04321034860346229, -0.05501389928654081, -0.018487666290970928, 0.016846374087323375, 0.13764457360445417, 0.05344215483401981, 0.01753484738713899, 0.10345820711586368, 0.07724466545595368, 0.05868497379098455, 0.03328822099049413, -0.01626549835882149, 0.009919728134228723, 0.015729384416472106, -0.0041733166274914866, 0.001579032158815087, 0.015546330453796298, -0.007037409537057788, 0.026610625144321914, -0.013448260353074629, -0.02220701552986166, -0.03592956510002688, -0.07276392878953705, -0.03505516258488273, -0.019321695282720625, 0.039835670770679454, 0.08658899547515396, -0.017423281696211806, -0.05828880200541275, 0.018942761582043693, 0.03547726635622801, 0.09264492821249044, 0.09003250101337093, 0.18801456424280386, 0.07362946916426595, 0.01803253230793782, 0.03410419487802301, 0.08894877170175815, 0.06203216508381672, -0.024406063440643617, 0.00782729762393128, -0.02863266798857946, -0.008254690770140129, -0.0023306892962205216, 0.00908730272013709, -0.021978423714175313, -0.026280494757981217, -0.05950610632806105, -0.042561759941501534, 0.007260178093606702, -0.1114469796363961, -0.08138062154297303, 0.07488769422707696, 0.10595137699424456, 0.0970396006219151, 0.002879572277693338, 0.17945094581623858, 0.006882410169176013, 0.032746518025647445, 0.21219838277081837, 0.04685661174804802, 0.14664463357733734, 0.19151911439718042, 0.16681472161960198, 0.045821082222776956, -0.006535627665679268, 0.020322398692820164, 0.008648467242063924, 0.01893098350628569, -0.017877990104171702, -0.017310230277491356, 0.022238396035103764, -0.0027692391601974006, -0.020720174012547107, -0.032888937505176755, -0.03050426298273916, -0.04285025879379073, -0.023014477545237718, -0.09125536733325591, -0.05075363741750638, -0.024059579647715337, 0.01605775601937809, 0.14535015633024004, 0.0012237336945953993, 0.09207119040064757, 0.03977901949288872, -0.0004963940019080859, 0.010170749209108935, -0.047095145723134745, 0.10165615180127133, 0.01719560442160588, -0.11357017416313045, 0.03153709113701189, 0.055672767738015404, 0.09102818577060329, 0.09753297187673031, 0.026137390758198993, 0.00894211374398039, -0.01594183881194665, 0.0014303705738018132, -0.021611358058617608, -0.0428532499574977, -0.025436828563803915, 0.09780972066290342, -0.11717646104649013, -0.06870862899316559, 0.04818123959885489, 0.009563134961801117, 0.10297962214571472, 0.03274694467638097, -0.04152769346527215, -0.05317039090305454, 0.0754745742873621, 0.1407340338571517, 0.019878489139466077, -0.1424069180906447, 0.12447230958212901, -0.05201843508367714, -0.1335661506515141, 0.059484533094829546, 0.11511990644541692, -0.0030122947713993368, 0.11414981947154078, 0.06617592511323125, 0.028189873736371576, 0.0020003987416897123, -0.007488014909358613, 0.015081132847164856, -0.030890377294697412, -0.03923835290213254, 0.008016082983075053, 0.002250483111771525, -0.02023395544310245, -0.007897653020358756, -0.018455470593323472, 0.07245851757983553, 0.10013778863526221, -0.1034172778292318, 0.04084029784992315, 0.12606505425164058, 0.07517483398152514, -0.040206912032154415, 0.04859457987851601, -0.01495043507963682, -0.011714151590247234, 0.10342553924659868, 0.11527421504861961, 0.07959859532187374, -0.022352616427757214, -0.004908750671213265, 0.05069943414276072, 0.04178174744249993, 0.05294972112075999, 0.03316112848901244, 0.014421696044532665, -0.0051734864494874, -0.017780841574468353, -0.07518202365170105, -0.02008206112895399, -0.033787338739163154, 0.0036888691666880037, 0.03931867208738981, 0.06541837922053681, -0.037723098893636904, -0.052964814190959296, 0.013631200554228338, -0.015176774193260788, 0.06418537236059517, -0.10849773028741697, -0.13869432319562425, -0.07678500183440774, -0.029545743051468634, -0.14065682211501823, -0.03581584454335879, -0.015950260665042258, 0.002196637571653982, -0.004887022832851876, 0.12464479758686776, 0.18841088278813095, 0.15800670362435626, 0.02324717469576955, -0.0229171612194283, -0.027577423667596534, 0.005187585979129639, 9.837106254572715e-05, -0.027281668331320348, -0.0238771843831425, -0.005660479983694967, 0.02038299081554308, -0.015844337604564267, -0.010497776900916876, -0.002676391854639209, 0.05892141644885436, -0.02434461366868527, -0.03194036666351361, -0.10472642597158978, -0.046353695774022374, -0.18561880786875146, -0.042614241501560436, -0.13737387856858918, 0.12728985837993792, -0.11608754385961795, 0.038323472410253766, 0.053771651836827805, 0.11958456190670312, 0.17012347463848115, 0.16818346688059305, 0.048188229902959775, 0.02303472420430846, -0.028407402013529957, -0.005143311499455407, -0.0027175442065226654, 0.01412909764981452, 0.047159734262446684, 0.06200485105947684, 0.030008519213926728, -0.05862457643958988, -0.11074855773087475, -0.062228975702907245, -0.05094056168906212, -0.09435273005669385, -0.1230811006878331, -0.056240757117831025, 0.18291789014898108, 0.09781766614141911, -0.17308195148533181, -0.12887510046560346, -0.11208056026508137, -0.13765605082036236, 0.03393909886092404, -0.021077282597384117, 0.001294063821128274, -0.08063679197951906, -0.00635132617344812, 0.08904390917421293, 0.06982865711336508, 0.01259357999658687, -0.007069838091273744, 0.015958956943065875, -0.004508593317795134, -0.009318531507038536, 0.09406803650176668, -0.02960956665022242, -0.02584516665644417, -0.07725958989204833, -0.07553836704743074, -0.14029513686980793, 0.00527882934638602, -0.1132567421354971, 0.027414749079112996, 0.03653398946299666, 0.08290865407840164, 0.07720052918764725, -0.12218902264438011, -0.308646867588265, -0.15786254107009012, -0.20249520447715985, -0.09419719369151382, -0.08805716444877332, -0.1144064272678413, -0.1822865096466153, -0.07683974150250349, 0.020043561910163075, 0.013678538703475246, 0.013802867937817096, -0.017217232556844965, 0.03212343984461471, -0.018021710695253254, 0.005707311103823418, 0.06559349066297152, -0.09857244348730455, -0.08154615297278153, -0.03959682202272134, 0.0542330998384542, 0.07173936918432124, 0.15662120365819363, -0.007092201839366227, -0.004989964491394842, 0.18401967800275798, 0.07894226417292752, -0.041890474681245064, -0.07533120087478519, -0.2620856163864924, -0.25905572289238993, -0.26082181557730433, -0.18088457210334186, -0.08006658583433073, -0.11025284059776526, -0.06377145330339373, -0.04285590394835968, 0.034848520529300875, -0.0037258149195996035, -0.013799173425557514, 0.004126187617069065, 0.005725260096770775, -0.0011037064970462532, -0.0186860670713102, 0.00710619764898138, -0.10629137268481006, -0.05456742874786217, 0.05928797825069726, 0.0661189730067533, -0.023589889714425334, 0.012181345998431709, -0.09459982848975639, 0.049406730173001144, 0.16172924350792287, 0.19471492441648527, 0.09629354927786285, -0.1484866199460807, -0.18143102834660566, -0.2552766196672279, -0.22545229985428292, -0.22675542310766406, -0.06700909532990926, -0.08945136911520708, -0.1459614753931004, -0.050495161225567436, -0.03137515973666078, -0.02354271149595944, -0.04177614187031358, -0.007471814497237907, 0.03753328568785533, -0.005521090116346709, -0.008954994972578297, -0.034886021559488986, -0.08027067738010066, -0.08789230866008019, -0.049410994112352336, 0.07170164495692485, 0.015767983013180296, -0.021094961957492966, -0.0927279752970833, 0.12842516437348905, 0.18664284971034042, 0.12993668429362834, 0.173944834364688, -0.13459298199792832, -0.01935355497303513, -0.17531184338424352, -0.05759395221263363, -0.1183852008697673, -0.03687862620826485, -0.11382612602632751, -0.1066294406780207, 0.010811044143275113, 0.054219957288102874, 0.03281993937885066, -0.03819759409658803, 0.0003372430362606198, -0.03146657745401109, 0.012539252249034268, -0.020158770305311432, 0.033304195609432916, -0.03481640894959757, -0.05303129768216149, -0.08790794061578469, -0.06401929916495154, -0.017660846098379868, 0.030506571117110977, -0.015527018578128627, 0.05352093311356267, 0.1588122821242196, 0.09798801209860755, 0.04210075116753817, -0.09161216835912943, -0.04997933019660278, -0.09804861213615455, -0.11251672597649753, -0.14356081320231778, -0.11123820676613393, 0.005117417938672492, 0.058484531108233935, 0.051459378774407316, 0.026300850114755355, 0.07180347759701337, 0.030968102629829363, 0.02296490265978168, -0.00014075374023215788, -0.02636131690358412, 0.03191792300109814, 0.06052334435331218, 0.008785905564400752, 0.029641171667683427, -0.06770433496456538, -0.16079891894045847, -0.07632849450299567, -0.020549555465634337, 0.04917144724837939, 0.04122233818186122, 0.021460232742731688, 0.04708305004762028, 0.015787652189760207, -0.16483843578640214, -0.03951326580874735, -0.13641860615890786, -0.07649032167470023, -0.03444556699733867, 0.021586021306108365, 0.10693419204666192, 0.1846626711805899, 0.008882979986012564, 0.001676261038641949, -0.028902445953108927, -0.00900674532878748, -0.020739638989367287, -0.021673330513194002, 0.0064912155749551, 0.030019357741195723, 0.06632055928397962, 0.06238671774236561, 0.03761295915024416, 0.0512221537334348, -0.0331918801429703, -0.09085872847699744, 0.04210639982939537, 0.06991947310961438, 0.02487658756175079, 0.0913184593240665, -0.012091520160990792, -0.15548621547080682, -0.2597868668710241, -0.10044827209629223, -0.09522610398654302, 0.04364398772633287, 0.09027871599894373, 0.055382404875199104, 0.024732526829013977, 0.06537071870944655, -0.032490766492970204, -0.05054528856210021, -0.010778723929256481, 0.014061739547230181, -0.04286161593268604, -0.0017301649733397879, -0.00888559852665685, 0.0043535663665062495, 0.026035574955631795, 0.0575457672397669, 0.0418098213543123, 0.09590357802986652, -0.01690417684990565, 0.04944389630210497, 0.060742702899127414, 0.1555072300966095, 0.05346007603778208, -0.019357235736576904, -0.08791471997642981, -0.25205259257309437, -0.23583117950650806, -0.11131055157546973, 0.11359125982455812, 0.2417309899197426, 0.09385882777408948, 0.06554225862440181, 0.043600151366556754, 0.1598418303957492, 0.03690386706885114, -0.0062441065470193345, -0.022861456232718128, 0.01250982763268785, 0.007554449235702969, 0.0024653487676732414, -0.007063174410161477, 0.009405326546339427, 0.017872454776035163, 0.11716491976687361, 0.19370155538614592, 0.07374097459965993, 0.03127424921600118, 0.06325011679828, 0.11939433549124488, 0.2920455267332049, 0.17182312480112868, 0.08339841315017901, 0.06642054486597873, -0.06315563960469561, 0.08044327836162075, -0.033574617584289236, 0.07095458700701945, 0.16645101693591466, 0.16497034102216032, 0.13445762780603737, 0.11986613863756208, 0.15391021863110363, 0.08037568528387397, -0.014153984205124799, -0.00018069109817426561, -0.026448178850257978, -0.007142363284744237, 0.0005026877912353236, 0.008713310195885718, 0.0060513101061544505, 0.0571831555357237, 0.09048395214680453, 0.02405633288202184, 0.04536983730515143, 0.05649523131970982, 0.12978906061913797, 0.11379887410387972, 0.13427302658692933, 0.33473877489289466, 0.23107859080994134, 0.32245996028634083, 0.2956856880770512, 0.18754179384584005, 0.038946275273729174, 0.23153741409670667, -0.03453256363176511, 0.052276303177659425, 0.10849516147275219, 0.07398689828606436, 0.20416196143924245, 0.03902782584017557, -0.009974215781201244, -0.02083546074625514, 0.00025679366766048056, 0.014072070944139814, -0.004314670502536102, -0.031153351791735145, -0.02120215655447643, 0.048842571342057314, 0.02350074164422069, 0.02713837215179121, -0.024820468138988142, 0.04056230484905789, -0.020570069312396404, 0.053163490417239584, -0.02075916573864771, 0.22981983104906245, 0.31550187040429634, 0.3781866172328157, 0.2437492827030558, 0.3046351334359776, 0.2715465678335487, 0.12264677322806479, 0.07111896572877642, 0.1552453473011464, 0.15834515165460378, 0.14228066546622314, 0.09488935282340659, 0.024889903602612326, -0.035971227072427676, -0.018005840224782303, -0.0066440904871081004, -0.03775779652200429, 0.012968617000557042, -0.011433812999911962, -0.0049936508798512904, 0.05374529052382373, 0.04267564597684674, 0.009100113196251137, 0.02936709575238483, 0.0460414736917959, 0.08676202760064317, 0.09401431700862281, 0.026078425493400278, 0.1585516524415372, 0.10578984551879858, 0.19358112521351253, 0.2718330142776734, 0.4136163656752467, 0.3762749438376581, 0.18750198001982382, 0.1290351551418696, 0.14453565226532844, 0.13940021881349227, 0.09479833309662335, 0.0948176553852218, 0.07749269043126189, -0.025019473627735846, 0.005850692892024167, -0.010449164684196946, 0.0006380630742445685, -0.0020632965436169688, -0.01661287314024128, -0.01776506424991283, 0.05640726877409494, -0.0045812516255317876, -0.09833441198657922, 0.010034855438716779, 0.047576231931375515, 0.13014696166174342, 0.14880552554178575, 0.04579256176845923, -0.010479979503886214, 0.2600699312612307, 0.1382788647784656, 0.17686058931465434, 0.1453559759855777, 0.22179262877367487, 0.11362658595392516, 0.11051073396297782, 0.07750499438373482, 0.051735354013575346, -0.011030094631404511, 0.02560865443285414, 0.0005539944359185708, 0.014250538097510689, 2.134847330286935e-05, 0.003786873828085255, 0.0004796283092152116, -0.013318275212530515, -0.0010338819078162874, -0.008674913364302133, -0.0177804712111923, -0.04368172012406317, -0.09575665226904831, 0.09479986360972205, 0.004347104228779422, -0.024922300382455274, 0.013213756777374842, 0.17421313606830796, -0.00597144172773222, -0.03479602440293306, 0.1578284559926106, 0.023334348560522362, 0.06649652877021987, 0.05074452673473066, 0.17766227411984864, 0.10060737608751487, 0.12727379851458476, 0.010273236244974759, -0.008528333189818455, 0.011675337052022306, -0.04871704290856623, 0.025453621841528336, -0.019020063576292903, -0.005748909602941894, -0.018066039698807504, 0.02635337036280032, 0.025082788578978638, 0.0013919187114484611, -7.83979048734073e-05, 0.005945694685798791, -0.00837277790578848, -0.047898929057204026, -0.10196239997569964, -0.08903483313084797, -0.11914932947223725, -0.07471776514690848, 0.033418198988426365, 0.0961105499324213, 0.040040838686830414, -0.08090056915847119, -0.06427771642238315, -0.010975994185926128, -0.02958295120983431, -0.020376971563079514, -0.021495589606236393, -0.026352600486511477, -0.026497570150519786, 0.020441712498250074, -0.02488753393637496, -0.02490175784103201, -0.029097774632288742, -0.010092228893561097, -0.006348961878478398, -0.002484866164958083, -0.006276121435085406, 0.0023200742006894755, 0.014103754025719336, -0.016309200452935966, -0.010976577578603073, 0.007535328549016015, -0.012875255921234282, 0.003255621437253236, 0.007802494862759918, 0.003000550738515564, -0.014425619591823901, 0.006224522651504087, -0.005498652226442582, -0.010916199929927057, -0.0007126025926994732, -0.00795205546439142, -0.012248633917696417, -0.01046342047609978, -0.005200214213327743, -0.013544510459309055, 0.0271274794151343, -0.009076732872143495, 0.006344320723446736, -0.013037874724564883, 0.006429200220422615, 0.025501743080278704, -0.0002604032088571289], [-0.020242432198776573, -0.04223673300387332, -0.010768802882824764, -0.008632154522454099, -0.011086873505870322, -0.012584538993008846, -0.0011811867302688839, 0.0002926372725879276, 0.00031101685197915775, -0.01783434643025322, 0.009937189761088403, -0.007633297448812514, -0.0014383500523641479, -0.013348683749622215, -0.03635769580750361, 0.00959792024729892, 0.012313017826238762, -0.0129873310106166, -0.0008121751835684221, 0.007949508606225694, 0.0010401755510237821, 0.008815830893734456, -0.003447287767149753, -0.014659030647033479, -0.01430113344941721, -0.033383289382575156, 0.0013075657252163704, 0.007491035130699352, -0.035448049737289614, -0.025727282969745316, -0.014484933213728655, 0.014855162704134547, 0.024082968071611095, 0.0016713255211396872, -0.0024738809967142137, -0.05305820552198139, 0.02041529290166028, 0.016154284412452334, -0.014984766055867514, -0.00185875180333873, -0.009017906831643593, 0.003859812912802989, 0.005905694288076275, 0.005955616547749821, 0.00632659895989523, -0.0021319430941518186, -0.016482625945757213, 0.007407549471595412, 0.0107351423816726, -0.011671108264996642, 0.012355726398403192, -0.03473024287848675, 0.008975458935530594, 0.0030815122835683223, -0.012038881966215081, -0.00409199242723747, -0.003844555634457235, -0.017854227560951664, 0.0007677583265430466, -0.015592864852948791, -0.009053504723957358, 0.0014689251650133238, -0.0048870875412584305, 0.009755396165491153, -0.0007357194515845292, -0.004013375954555928, 0.03971082818999891, -0.014201826022557927, -0.020208145691121053, -0.020317704968756983, 0.009643238800319228, -0.007256645206774987, 0.03262944628965038, -0.010645949445980641, -0.030812267735565002, -0.016303513386201094, -0.024656002651738694, 0.00348839631042938, -0.0070582684920092046, -0.0012991365505998307, 0.002378436520432172, 0.0034123772948993626, 0.010262541267221823, 0.02128682416586642, 0.002819282475520773, 0.018353211311199883, 0.02621701902132301, 0.005029913511397907, -0.01979610652083192, 0.019327559104223777, -0.005523953288104906, -0.024034328878560506, -0.03863274488358761, -0.033490496584082374, -0.021945120149032247, 0.010854027427804915, -0.036075986836355725, 0.07862603582601213, 0.0346322527594517, 0.02110734743023294, -0.03746998942020886, -0.012376731633220117, -0.05120700054037367, 0.005391453895052391, -0.02534697961573085, -0.04371454254241531, -0.030638344713006326, -0.005038349553288189, 0.00876376450196731, -0.004518131506810096, 0.01642376366701988, 0.026269955904042817, 0.0009279519908337204, 0.017532285367360925, -0.013158059913805257, -0.0025628259127283884, -0.02409140007479904, 0.003458840974917128, -0.008530674988078404, 0.008217180534817087, -0.006495201032697109, 0.10028633088881296, 0.13767173102770242, 0.009038928719874828, -0.07246342409805274, 0.0579515980063238, 0.043791041518462075, 0.06533677987413639, 0.07016267420188742, 0.08219247963993122, 0.04557352250535182, -0.06436091357677587, -0.0737903096795921, -0.10780868928433583, -0.056470603707973334, -0.005002441282713489, -0.04385952005329689, 0.009494167259015855, 0.005501442487426313, 0.0010996419055510174, 0.014739575844026196, 0.018046268693521054, 0.00848759210171151, 0.00893752566034819, -0.010409116169355186, -0.0011488190080152327, 0.021627383892663558, 0.031172064429602343, 0.06550855789092691, 0.06669675286550457, 0.1592061048204276, 0.09006166023332571, 0.0636510237453177, 0.05417218884171823, 0.09354760266232937, -0.049819061233386884, 0.08132137058199901, 0.0799666422650978, 0.0781398269380715, 0.019783478429650298, 0.015100974384123476, 0.00795040362467056, -0.005045661246906215, 0.04888350119976438, -0.0303043408616237, -0.0008744323119168001, 0.024371866443080294, -0.036019885747675, 0.019917561109459934, -0.022395013812750938, -0.001906416912938466, -0.014145814380395836, -0.023110034078851396, 0.000537739573280357, 0.09481580704989241, 0.10629186545577102, 0.11591855020476365, 0.09817472200106789, 0.19804404782893292, 0.036545600262985846, 0.07668523747708413, -0.01500676863447031, 0.1379800979256599, 0.005817527579370333, -0.04322094302533886, 0.004030023871269308, -0.06984778864764116, 0.03788174432067259, -0.06408173685586607, -0.029483560619483727, -0.025789767255642873, -0.023137706205073202, 0.006596815588780334, -0.058860230453109695, -0.020430622583356258, 0.011188236882528603, 0.016678158130431282, 0.0075638188632281495, 0.0172097370316432, -0.00923114067234992, -0.016833340858298892, 0.023309084162711182, 0.13966086055079227, 0.14351441373735613, -0.01158718676057715, 0.1733474398892023, 0.15111494952128215, 0.1778438353787568, 0.18076302092443325, 0.11667665677352343, -0.007683756752321756, 0.01970636083568335, 0.06128860339621337, -0.019838760952004358, 0.020147774082220526, 0.16952556174074204, 0.029080563857783705, 0.06414733312467573, 0.03043663963899249, -0.04375495212179322, -0.016952169911565954, -0.06297929355228854, -0.0028464843517118153, 0.017170023143959077, -0.05003961799407758, -0.004841171176682066, -0.006225036539363088, -0.019270155986456795, -0.030938001159084065, -0.019440487376467128, 0.044596645936993126, -0.005279466748201974, 0.0445956154830911, 0.05183488405664004, 0.12942645867287475, 0.15408509237903492, 0.28993993006268526, 0.15007139021142163, 0.16085835873889573, -0.013238826768861947, 0.03531336521680682, 0.0036041005092874324, 0.05691878522289735, 0.19157395533970037, 0.0822360031456377, 0.07464455468733618, 0.08915357855604653, 0.07813219602650448, -0.000943755928038566, -0.009261621849543562, -0.05460355297490822, 0.00045621054356493533, 0.0015337356416037025, -0.029006760055225803, -0.013552052228676286, -0.025334213409551117, -0.009066207616133982, 0.07788874376136375, -0.04573812016049529, 0.052899970623251386, 0.043891311181510545, 0.07689167516622411, 0.03737702822526728, 0.030332853612621793, 0.2603993764621212, 0.13753317316138336, 0.02143004900682612, 0.0520477386430266, 0.0491281618856519, 0.05089124204900164, 0.1815623142960688, 0.16135797595971962, 0.06959494339999735, 0.03421788322140586, 0.05659251577921307, 0.15184076393228632, -0.003310031970838416, 0.008051356835668308, -0.01965035065333787, -0.012251078068918455, 0.0014660016802786446, -0.011645646407282195, 0.010000907461315343, -0.04935572382124464, -0.02105949645706748, 0.10564465395799054, -0.011630468147092414, -0.028178960438695732, 0.05682057521010027, 0.03656282026339817, 0.10746119662994313, 0.08765533306868037, -0.04616980158672502, -0.09201124377182623, -0.28623695678579913, -0.08496449987725535, -0.14525302321393732, 0.04318443082605166, 0.10929310254222825, 0.07175557920393723, 0.026555804675128674, 0.11116751226094583, -0.058948798766151875, 0.040771374944975965, -0.006573473336832425, 0.019611866718453146, -0.008164743565524617, -0.0013535200754600462, 0.01820183078797097, -0.01919040211510854, -0.0069887755739034925, -0.006477601265401341, 0.031705730025539655, 0.07880184699635161, 0.09045047088699286, -0.1228166040094428, -0.02614279529550117, 0.057023596430593494, 0.03633517187563572, 0.08097156019210903, -0.2925197277629588, -0.5419696388468022, -0.37542144825474255, -0.04025132900903432, -0.08214957125409246, 0.07698240735064817, -0.0023336905711189484, -0.02454204326234489, -0.10210614180992506, -0.0021402247165670965, -0.02308205768259273, -0.03455825833069922, -0.0006014221741987609, -0.017121576293395186, -0.02463897167402746, 0.005748729875239652, 0.021603787603708135, 0.0029456623605694132, 0.007001719210181292, -0.01116161889453428, 0.02403839393231583, 0.05034003526210737, 0.05852279848768079, 0.060906962199094423, 0.08986352673559059, 0.21854667358357735, 0.048755748566890654, -0.12475977654727648, -0.4006140457115209, -0.3831684810832181, -0.19624796545599738, -0.11901364834521057, -0.20442642783192772, -0.05208445116764287, 0.0030447786885495287, -0.12460593910140964, -0.017250906648680696, -0.033254791571608315, -0.08501792463571038, -0.035233919383413886, -0.03574341029993738, -0.03397885200037071, 0.002339103789055441, -0.023499915038135203, 0.004669217262784743, -0.0022963903218816296, 0.01541886080311346, 0.005979010026105563, -0.011402851383322123, 0.04314271688338304, 0.028258336255661785, 0.15702372442480036, 0.059610684712837814, 0.08915746874027308, 0.012062482090355122, -0.2860637716667273, -0.47434231872627014, -0.20478659806527238, -0.08025461974150397, -0.23096193139001334, -0.19853290281685038, -0.09771394536091953, -0.058649403549030775, -0.15652846296109135, -0.1241688148108098, -0.022657425876550258, -0.030252337520807464, -0.056174691057718516, -0.03217155550580732, 0.034153932044397824, 0.010989137533898971, 0.04163136370877017, -0.014449864243771366, 0.01463525960372314, -0.015722878899894047, -0.0160973378774195, -0.03751771514604464, 0.13455213553403217, 0.023817805788447464, 0.036897618995566685, -0.03667179334783705, -0.08488459489805669, -0.11891611676910317, -0.37308508361064086, -0.337560744805801, -0.18453336728089317, -0.019159860313723787, -0.0071958708918817395, -0.1975741099811191, -0.11231632784331065, -0.10706400860895607, -0.14122828979214866, 0.009263307992925632, 0.031371739285791046, -0.06304223104315304, -0.04045522886533578, -0.006875268419022337, -0.027653049421002072, 0.01578766532283814, -0.04455325737235117, 0.0046974657149204705, -0.027570946766801222, 0.02059301226361169, -0.03835624894061054, -0.04379187686880508, 0.05558395452007294, -0.07577174775433848, -0.050726114804454873, -0.13404215629058266, -0.3018507417487007, -0.16557086987033592, -0.2966740344535455, -0.3087245356745311, -0.15420321873370318, -0.18859294951692313, -0.1756811473461675, -0.2425308653467056, -0.20088850925174048, -0.15259763444938956, -0.22310439482197078, -0.13857439177508277, 0.05771740571000894, -0.16219163238982756, -0.050031125576583985, -0.002450581244778135, -0.03791032255133893, 0.01525658491923672, 0.004103564908435908, -0.014352095258097589, 0.007755942137068162, -0.003421213096132877, -0.0794401119587146, -0.07400191467993307, -0.08389516776245144, -0.10591537640799523, -0.1284256780391804, -0.2202764378422464, -0.24983782044356348, -0.026499086332935896, -0.0814390776299554, -0.14498322564553, -0.08979558374396064, -0.1418175246536073, -0.12797462729062248, -0.024742882134525454, -0.20900079876071234, -0.25132632554728473, -0.21777983070130646, -0.13398497704625353, -0.07418671449300251, -0.09747953869379283, -0.06441344716625692, 0.05598622906781854, -0.056248223479854184, -0.001743991649261568, 0.02437934076082774, 0.0044644202033613765, -0.027600325384726204, -0.010470890729154048, -0.036127955386722525, -0.07968855160170008, -0.041054951943208386, -0.20964760884126066, -0.1821437191667963, -0.12888511869185398, 0.01105240681160697, 0.0666015970759474, 0.05263033053505646, 0.025956071757216426, -0.17248590502631617, -0.15611443343779594, -0.20374880449872196, -0.1097704621132887, -0.2587681987005862, -0.2771050378495366, -0.1034145985047669, -0.187826836329863, -0.10551254140397172, -0.022283965532743824, -0.007856728374111091, 0.027864253575959376, -0.007348187199772715, 0.017707848255825717, -0.006017377019496891, -0.007285414153973733, -0.018504369259660713, -0.0019671954253535624, -0.03326801085411567, -0.041715307115324306, -0.056318900370501274, -0.19221381555673236, -0.028798337855135556, -0.10269173629419796, 0.13202510911184445, -0.026847739859036778, -0.016269406948015066, 0.08292778088010047, -0.16330492265788768, -0.24877457507831027, -0.25331661612389866, -0.2942749036984708, -0.3405033926627729, -0.08462301372492416, -0.07468837056076258, -0.14477537874888122, 0.031072584014658924, 0.11845509687806288, 0.08538662483711065, -0.0012924948971983338, 0.053617437771040256, 0.010741895729027352, 0.01787766869261542, -0.025400123553386396, -0.0035265180532149435, 0.016867182659925692, 0.05513192694674066, -0.052720530209677846, -0.17876786441216047, -0.0701612559141384, 0.04470623004463039, -0.06514350782659607, -0.05669718434799401, -0.014825571220042346, 0.13508647979911081, 0.0007960317151297161, 0.0004584177457243355, -0.0908599145621339, -0.111221973676602, -0.19655325047033523, 0.04683048341977046, 0.04258873963002014, 0.017158399255492295, 0.03502100834000497, 0.0908682741110639, 0.1073556962827615, 0.02392689908693176, 0.004140838305056746, -0.011034823087724382, 0.012302175022488673, 0.014829646067071324, 0.01704046084582465, -0.030271062513667363, -0.013902179777354603, 0.0498935288580338, 0.002902234768928427, -0.02105899161811575, -0.004963262769633043, 0.08094450672784265, -0.0033850408515547995, 0.05208898579448755, 0.03734399239391817, 0.08805529197687319, 0.20726879090140826, 0.2599441785401714, 0.17265869691972782, 0.05186880530072531, 0.12320970159291075, 0.03839504701870767, -0.02444152911094391, -0.04762501693851324, 0.03267260043578874, 0.04354433017631852, 0.013350821039987255, 0.04156053473260253, 0.035083629734159974, 0.007285672364801961, 0.052304066854333364, 0.0002573448042913343, -0.009880355939657018, -0.0014475961161871669, 0.03210827223228244, 0.03317620441012322, 0.02268536045128367, 0.0035600859782366863, -0.027696028700058627, -0.034451256081440215, -0.06053192798859618, 0.10275878748869245, 0.1359766972235712, 0.28128564709798526, 0.21673255629444918, 0.22378507219397464, 0.20952119449436107, 0.16981883220249488, 0.18086671419437056, 0.12717496226283406, 0.06568031383866876, 0.0009665194220893506, 0.05820096788890482, 0.030812118839801637, 0.09557639662766097, 0.12565629037019976, 0.04986484602784779, 0.05068299902841469, 0.003528162922213337, -0.008636236395275589, -0.017798415626317517, 0.008557452454827317, 0.025473351578378375, 0.027420898989535553, -0.023621016557533563, 0.04886523274983298, 0.05956915504938662, -0.030789513842362053, 0.14754062269783327, 0.08369532572851385, 0.07933339592358148, 0.14551790101830078, -0.02764873541306447, 0.1530434668598038, 0.25346291967629825, 0.08402687064631359, 0.13039625818899622, 0.15654345848502674, 0.1603201712139294, 0.07441386711395953, 0.0034474356584581396, 